{"learner":{"attributes":{"scikit_learn":"{\"_estimator_type\": \"regressor\"}"},"feature_names":[],"feature_types":[],"gradient_booster":{"model":{"cats":{"enc":[],"feature_segments":[],"sorted_idx":[]},"gbtree_model_param":{"num_parallel_tree":"1","num_trees":"800"},"iteration_indptr":[0,1,2,3,4,5,6,7,8,9,10,11,12,13,14,15,16,17,18,19,20,21,22,23,24,25,26,27,28,29,30,31,32,33,34,35,36,37,38,39,40,41,42,43,44,45,46,47,48,49,50,51,52,53,54,55,56,57,58,59,60,61,62,63,64,65,66,67,68,69,70,71,72,73,74,75,76,77,78,79,80,81,82,83,84,85,86,87,88,89,90,91,92,93,94,95,96,97,98,99,100,101,102,103,104,105,106,107,108,109,110,111,112,113,114,115,116,117,118,119,120,121,122,123,124,125,126,127,128,129,130,131,132,133,134,135,136,137,138,139,140,141,142,143,144,145,146,147,148,149,150,151,152,153,154,155,156,157,158,159,160,161,162,163,164,165,166,167,168,169,170,171,172,173,174,175,176,177,178,179,180,181,182,183,184,185,186,187,188,189,190,191,192,193,194,195,196,197,198,199,200,201,202,203,204,205,206,207,208,209,210,211,212,213,214,215,216,217,218,219,220,221,222,223,224,225,226,227,228,229,230,231,232,233,234,235,236,237,238,239,240,241,242,243,244,245,246,247,248,249,250,251,252,253,254,255,256,257,258,259,260,261,262,263,264,265,266,267,268,269,270,271,272,273,274,275,276,277,278,279,280,281,282,283,284,285,286,287,288,289,290,291,292,293,294,295,296,297,298,299,300,301,302,303,304,305,306,307,308,309,310,311,312,313,314,315,316,317,318,319,320,321,322,323,324,325,326,327,328,329,330,331,332,333,334,335,336,337,338,339,340,341,342,343,344,345,346,347,348,349,350,351,352,353,354,355,356,357,358,359,360,361,362,363,364,365,366,367,368,369,370,371,372,373,374,375,376,377,378,379,380,381,382,383,384,385,386,387,388,389,390,391,392,393,394,395,396,397,398,399,400,401,402,403,404,405,406,407,408,409,410,411,412,413,414,415,416,417,418,419,420,421,422,423,424,425,426,427,428,429,430,431,432,433,434,435,436,437,438,439,440,441,442,443,444,445,446,447,448,449,450,451,452,453,454,455,456,457,458,459,460,461,462,463,464,465,466,467,468,469,470,471,472,473,474,475,476,477,478,479,480,481,482,483,484,485,486,487,488,489,490,491,492,493,494,495,496,497,498,499,500,501,502,503,504,505,506,507,508,509,510,511,512,513,514,515,516,517,518,519,520,521,522,523,524,525,526,527,528,529,530,531,532,533,534,535,536,537,538,539,540,541,542,543,544,545,546,547,548,549,550,551,552,553,554,555,556,557,558,559,560,561,562,563,564,565,566,567,568,569,570,571,572,573,574,575,576,577,578,579,580,581,582,583,584,585,586,587,588,589,590,591,592,593,594,595,596,597,598,599,600,601,602,603,604,605,606,607,608,609,610,611,612,613,614,615,616,617,618,619,620,621,622,623,624,625,626,627,628,629,630,631,632,633,634,635,636,637,638,639,640,641,642,643,644,645,646,647,648,649,650,651,652,653,654,655,656,657,658,659,660,661,662,663,664,665,666,667,668,669,670,671,672,673,674,675,676,677,678,679,680,681,682,683,684,685,686,687,688,689,690,691,692,693,694,695,696,697,698,699,700,701,702,703,704,705,706,707,708,709,710,711,712,713,714,715,716,717,718,719,720,721,722,723,724,725,726,727,728,729,730,731,732,733,734,735,736,737,738,739,740,741,742,743,744,745,746,747,748,749,750,751,752,753,754,755,756,757,758,759,760,761,762,763,764,765,766,767,768,769,770,771,772,773,774,775,776,777,778,779,780,781,782,783,784,785,786,787,788,789,790,791,792,793,794,795,796,797,798,799,800],"tree_info":[0,0,0,0,0,0,0,0,0,0,0,0,0,0,0,0,0,0,0,0,0,0,0,0,0,0,0,0,0,0,0,0,0,0,0,0,0,0,0,0,0,0,0,0,0,0,0,0,0,0,0,0,0,0,0,0,0,0,0,0,0,0,0,0,0,0,0,0,0,0,0,0,0,0,0,0,0,0,0,0,0,0,0,0,0,0,0,0,0,0,0,0,0,0,0,0,0,0,0,0,0,0,0,0,0,0,0,0,0,0,0,0,0,0,0,0,0,0,0,0,0,0,0,0,0,0,0,0,0,0,0,0,0,0,0,0,0,0,0,0,0,0,0,0,0,0,0,0,0,0,0,0,0,0,0,0,0,0,0,0,0,0,0,0,0,0,0,0,0,0,0,0,0,0,0,0,0,0,0,0,0,0,0,0,0,0,0,0,0,0,0,0,0,0,0,0,0,0,0,0,0,0,0,0,0,0,0,0,0,0,0,0,0,0,0,0,0,0,0,0,0,0,0,0,0,0,0,0,0,0,0,0,0,0,0,0,0,0,0,0,0,0,0,0,0,0,0,0,0,0,0,0,0,0,0,0,0,0,0,0,0,0,0,0,0,0,0,0,0,0,0,0,0,0,0,0,0,0,0,0,0,0,0,0,0,0,0,0,0,0,0,0,0,0,0,0,0,0,0,0,0,0,0,0,0,0,0,0,0,0,0,0,0,0,0,0,0,0,0,0,0,0,0,0,0,0,0,0,0,0,0,0,0,0,0,0,0,0,0,0,0,0,0,0,0,0,0,0,0,0,0,0,0,0,0,0,0,0,0,0,0,0,0,0,0,0,0,0,0,0,0,0,0,0,0,0,0,0,0,0,0,0,0,0,0,0,0,0,0,0,0,0,0,0,0,0,0,0,0,0,0,0,0,0,0,0,0,0,0,0,0,0,0,0,0,0,0,0,0,0,0,0,0,0,0,0,0,0,0,0,0,0,0,0,0,0,0,0,0,0,0,0,0,0,0,0,0,0,0,0,0,0,0,0,0,0,0,0,0,0,0,0,0,0,0,0,0,0,0,0,0,0,0,0,0,0,0,0,0,0,0,0,0,0,0,0,0,0,0,0,0,0,0,0,0,0,0,0,0,0,0,0,0,0,0,0,0,0,0,0,0,0,0,0,0,0,0,0,0,0,0,0,0,0,0,0,0,0,0,0,0,0,0,0,0,0,0,0,0,0,0,0,0,0,0,0,0,0,0,0,0,0,0,0,0,0,0,0,0,0,0,0,0,0,0,0,0,0,0,0,0,0,0,0,0,0,0,0,0,0,0,0,0,0,0,0,0,0,0,0,0,0,0,0,0,0,0,0,0,0,0,0,0,0,0,0,0,0,0,0,0,0,0,0,0,0,0,0,0,0,0,0,0,0,0,0,0,0,0,0,0,0,0,0,0,0,0,0,0,0,0,0,0,0,0,0,0,0,0,0,0,0,0,0,0,0,0,0,0,0,0,0,0,0,0,0,0,0,0,0,0,0,0,0,0,0,0,0,0,0,0,0,0,0,0,0,0,0,0,0,0,0,0,0,0,0,0,0,0,0,0,0,0,0,0,0,0,0,0,0,0,0,0,0,0,0,0,0,0,0,0,0,0,0,0,0,0,0,0,0,0,0,0,0,0,0,0,0,0,0,0,0,0,0,0,0,0,0,0,0,0,0,0,0,0,0,0,0,0,0,0,0,0,0,0,0,0,0,0,0,0,0,0,0,0,0,0,0,0,0,0,0,0,0,0,0,0,0,0,0,0,0,0,0,0,0,0,0,0,0],"trees":[{"base_weights":[6.5685166E-3,2.2949852E-1,-1.3174312E-1,1.0258303E-1,7.217391E-1,-5.6455143E-2,-5.146067E-1,-3.561644E-2,6.754717E-1,4.882353E-2,-0E0,-1.3984962E-1,5.0508475E-1,-4.6444446E-2,-8.444444E-2,6E-1,-1.9096045E-1,8.7317073E-1,-0E0,-3.5454545E-2,4.3333333E-2,-3.0340558E-2,-5.948052E-1,7.1914893E-1,-2.923077E-1,3.6296296E-1,-7.263158E-1,8.5142857E-1,-2.1111112E-2,2.4307692E-1,-4.4070795E-1,1.2857142E-2,4.8285715E-2,4.1428573E-2,-4.1428573E-2,2.427481E-1,-2.1658032E-1,-7.1343285E-1,8.181818E-3,4.837838E-2,-8.181818E-3,1.2857142E-2,-4.1428573E-2,4.647059E-2,-2.6363635E-2,-4.5384616E-2,-1.2857142E-2,4.7931034E-2,1.2857142E-2,5.058824E-1,-6.533333E-1,4.5882353E-1,-5.958763E-1,3.719626E-1,-3.12E-1,2.93617E-1,-3.7959182E-1,1.2857142E-2,-8.1639344E-1,1.8709677E-1,4.714286E-2,-1.2857142E-2,-4.3333333E-2,-1.2857142E-2,4.4545453E-2,-2.8163266E-1,-8.9387757E-1,4.5346534E-1,-4.1428573E-2,-4.5384616E-2,2.923077E-1,-4.4545453E-2,6.4324325E-1,-5.920792E-1,8.085106E-2,-4.105263E-1,-4.8604652E-2,3.4705885E-2,-1.9333333E-2,-3.0000001E-2,1.7058825E-2,-4.8604652E-2,-1.2857142E-2,1.0298508E-2,4.542857E-2,-1.2857142E-2,4.1428573E-2,4.7931034E-2,-2.1111112E-2,-0E0,-4.0958907E-2,4.5384616E-2,-1.1142857E-2,2.7142858E-2,-4.5384616E-2],"categories":[],"categories_nodes":[],"categories_segments":[],"categories_sizes":[],"default_left":[0,0,0,0,0,0,0,0,0,0,0,0,0,0,0,0,0,0,0,0,0,0,0,0,0,0,0,0,0,0,0,0,0,0,0,0,0,0,0,0,0,0,0,0,0,0,0,0,0,0,0,0,0,0,0,0,0,0,0,0,0,0,0,0,0,0,0,0,0,0,0,0,0,0,0,0,0,0,0,0,0,0,0,0,0,0,0,0,0,0,0,0,0,0,0],"id":0,"left_children":[1,3,5,7,9,11,13,15,17,-1,19,21,23,-1,25,27,29,31,33,-1,-1,35,37,39,41,43,45,47,-1,49,51,-1,-1,-1,-1,53,55,57,-1,-1,-1,-1,-1,-1,-1,-1,-1,-1,-1,59,61,63,65,67,69,71,73,-1,75,77,-1,-1,-1,-1,-1,79,81,83,-1,-1,85,-1,87,89,91,93,-1,-1,-1,-1,-1,-1,-1,-1,-1,-1,-1,-1,-1,-1,-1,-1,-1,-1,-1],"loss_changes":[1.3638021E1,1.0469715E1,7.783187E0,1.0803944E1,6.3428135E0,1.0699295E1,7.789729E0,1.0828327E1,3.5388126E0,0E0,6.1454544E0,9.867903E0,5.183238E0,0E0,6.6296535E0,5.748507E0,9.666704E0,9.2224216E-1,4.805714E0,0E0,0E0,8.237555E0,3.57728E0,5.313116E0,2.078901E0,7.092925E0,5.752344E-1,8.699713E-1,0E0,7.806908E0,8.036609E0,0E0,0E0,0E0,0E0,4.759162E0,8.090041E0,3.5085793E0,0E0,0E0,0E0,0E0,0E0,0E0,0E0,0E0,0E0,0E0,0E0,3.3509836E0,4.1009545E-1,2.8074715E0,4.298359E0,5.385156E0,4.6939697E0,9.994091E0,7.2661753E0,0E0,1.5895996E0,4.6740475E0,0E0,0E0,0E0,0E0,0E0,4.9861465E0,9.722538E-1,5.483124E0,0E0,0E0,2.078901E0,0E0,6.472456E0,6.7902565E0,6.070911E0,4.7857604E0,0E0,0E0,0E0,0E0,0E0,0E0,0E0,0E0,0E0,0E0,0E0,0E0,0E0,0E0,0E0,0E0,0E0,0E0,0E0],"parents":[2147483647,0,0,1,1,2,2,3,3,4,4,5,5,6,6,7,7,8,8,10,10,11,11,12,12,14,14,15,15,16,16,17,17,18,18,21,21,22,22,23,23,24,24,25,25,26,26,27,27,29,29,30,30,35,35,36,36,37,37,49,49,50,50,51,51,52,52,53,53,54,54,55,55,56,56,58,58,59,59,65,65,66,66,67,67,70,70,72,72,73,73,74,74,75,75],"right_children":[2,4,6,8,10,12,14,16,18,-1,20,22,24,-1,26,28,30,32,34,-1,-1,36,38,40,42,44,46,48,-1,50,52,-1,-1,-1,-1,54,56,58,-1,-1,-1,-1,-1,-1,-1,-1,-1,-1,-1,60,62,64,66,68,70,72,74,-1,76,78,-1,-1,-1,-1,-1,80,82,84,-1,-1,86,-1,88,90,92,94,-1,-1,-1,-1,-1,-1,-1,-1,-1,-1,-1,-1,-1,-1,-1,-1,-1,-1,-1],"split_conditions":[-5.6605907E-3,-1.0759592E-2,1.6379414E-1,1.983011E-1,1.4868388E-2,5.6209713E-1,6.195484E-1,6.53513E-2,2.0442447E-2,3.014542E-3,6.877968E-2,4.8197645E-1,2.4008658E-2,-4.365904E-3,8.48317E-2,8E-1,2.1089585E-1,1.6200207E-1,1.644932E-1,-7.276474E-4,5.883574E-3,2.7889365E-1,1.5657518E-2,8E-1,2.3426421E-1,3.58954E-1,1.5437563E-1,1.7299053E-1,-1.1746351E-3,1.2816141E-2,-1.6179429E-1,1.0395236E-4,4.760896E-3,4.2619514E-3,-7.900228E-4,6.936516E-2,1.25E-1,2.0110227E-1,1.8711046E-3,5.6237034E-3,-6.029104E-3,3.222447E-3,-4.0540467E-3,9.4594555E-3,-3.2432452E-3,-6.9958433E-3,-6.1330562E-3,5.748444E-3,6.444933E-4,3.2875128E-2,8.404845E-2,1.8815903E-1,-2.6713023E-2,9.865848E-2,-7.0103426E-3,-1.334944E-1,4.6084937E-1,2.016614E-3,2.8185216E-1,3.1164375E-1,2.442833E-3,-4.1578998E-4,-2.1309757E-3,-5.405409E-3,4.0540467E-3,1.2135867E-2,6.610172E-1,2.1005716E-2,-4.5945877E-3,-4.521833E-3,3.4176525E-1,-3.7422092E-3,2.9709473E-1,2.8891867E-1,6.0249305E-1,0E0,-4.2619514E-3,1.2473997E-3,-9.355523E-4,-5.10396E-3,8.108113E-4,-1.975057E-3,-2.1205866E-3,5.1974243E-4,6.403336E-3,-5.197623E-4,1.0394849E-3,4.2099752E-3,-4.667362E-3,-9.313226E-11,-4.0124697E-3,3.3783752E-3,-1.808729E-3,7.6920446E-4,-2.972965E-3],"split_indices":[86,88,171,20,92,11,13,22,51,0,101,27,51,0,133,63,31,3,10,0,0,49,137,63,8,21,0,38,0,1,90,0,0,0,0,90,32,19,0,0,0,0,0,0,0,0,0,0,0,47,0,8,109,105,134,105,33,0,49,29,0,0,0,0,0,1,29,88,0,0,6,0,17,33,28,140,0,0,0,0,0,0,0,0,0,0,0,0,0,0,0,0,0,0,0],"split_type":[0,0,0,0,0,0,0,0,0,0,0,0,0,0,0,0,0,0,0,0,0,0,0,0,0,0,0,0,0,0,0,0,0,0,0,0,0,0,0,0,0,0,0,0,0,0,0,0,0,0,0,0,0,0,0,0,0,0,0,0,0,0,0,0,0,0,0,0,0,0,0,0,0,0,0,0,0,0,0,0,0,0,0,0,0,0,0,0,0,0,0,0,0,0,0],"sum_hessian":[4.41E2,1.69E2,2.72E2,1.35E2,3.4E1,2.28E2,4.4E1,1.09E2,2.6E1,2.5E1,9E0,1.99E2,2.9E1,2.2E1,2.2E1,2.1E1,8.8E1,2E1,6E0,5E0,4E0,1.61E2,3.8E1,2.3E1,6E0,1.3E1,9E0,1.7E1,4E0,3.2E1,5.6E1,3E0,1.7E1,3E0,3E0,6.5E1,9.6E1,3.3E1,5E0,1.8E1,5E0,3E0,3E0,8E0,5E0,6E0,3E0,1.4E1,3E0,2.5E1,7E0,8E0,4.8E1,5.3E1,1.2E1,2.3E1,7.3E1,3E0,3E1,1.5E1,1E1,3E0,4E0,3E0,5E0,2.4E1,2.4E1,5E1,3E0,6E0,6E0,5E0,1.8E1,5E1,2.3E1,9E0,2.1E1,8E0,7E0,1.6E1,8E0,2.1E1,3E0,3.3E1,1.7E1,3E0,3E0,1.4E1,4E0,1.4E1,3.6E1,6E0,1.7E1,3E0,6E0],"tree_param":{"num_deleted":"0","num_feature":"172","num_nodes":"95","size_leaf_vector":"1"}},{"base_weights":[-2.0761245E-3,2.0360361E-1,-1.304673E-1,2.5642633E-1,-4.6E-2,-1.7249508E-1,6.5925926E-1,3.5091576E-1,-2.93617E-1,-0E0,-4.2009568E-1,4.714286E-2,-1.2857142E-2,4.084942E-1,-6.533333E-1,-6.4324325E-1,4.4545453E-2,-7.92E-1,7.148015E-2,-6.8062013E-1,-0E0,5.203791E-1,-7.755102E-2,-1.2857142E-2,-4.3333333E-2,-8.3225805E-1,1.2857142E-2,-1.2857142E-2,-4.6842106E-2,4.777778E-2,-2.310757E-2,4.1428573E-2,-7.626016E-1,2.0597015E-1,-4.6E-2,4.150289E-1,4.8461538E-2,-6.9411767E-1,2.3636363E-1,-1.2857142E-2,-4.76E-2,4.6E-2,-8.354431E-2,2.923077E-1,-8.810811E-1,-3.12E-1,5.069767E-1,8.7906975E-1,2.5801528E-1,-1.2857142E-2,-4.4545453E-2,4.647059E-2,-4.5882353E-1,-1.6497695E-1,7.5238097E-1,-1.2857142E-2,4.1428573E-2,-8.181818E-3,-9.485149E-1,2.6363635E-2,-4.6E-2,-0E0,8.074074E-1,4.837838E-2,1.2857142E-2,-1.0843374E-3,3.653061E-2,-4.4545453E-2,1.2857142E-2,-1.341969E-2,3.1600002E-2,4.6E-2,1.2857142E-2,-1.2857142E-2,-4.9368422E-2,4.1428573E-2,-2.6363635E-2,4.714286E-2,1.2857142E-2],"categories":[],"categories_nodes":[],"categories_segments":[],"categories_sizes":[],"default_left":[0,0,0,0,0,0,0,0,0,0,0,0,0,0,0,0,0,0,0,0,0,0,0,0,0,0,0,0,0,0,0,0,0,0,0,0,0,0,0,0,0,0,0,0,0,0,0,0,0,0,0,0,0,0,0,0,0,0,0,0,0,0,0,0,0,0,0,0,0,0,0,0,0,0,0,0,0,0,0],"id":1,"left_children":[1,3,5,7,-1,9,11,13,15,17,19,-1,-1,21,23,25,-1,27,29,31,33,35,37,-1,-1,39,-1,-1,-1,-1,41,-1,43,45,-1,47,-1,49,51,-1,-1,-1,53,55,57,59,61,63,65,-1,-1,-1,67,69,71,-1,-1,-1,73,-1,-1,75,77,-1,-1,-1,-1,-1,-1,-1,-1,-1,-1,-1,-1,-1,-1,-1,-1],"loss_changes":[1.1453603E1,9.933676E0,8.886633E0,8.346984E0,0E0,1.0869665E1,3.6983066E0,8.001812E0,9.994091E0,8.548453E0,1.1437025E1,0E0,0E0,7.106819E0,4.1009545E-1,3.3129625E0,0E0,7.285223E-1,1.1686026E1,8.289652E0,7.769194E0,4.6491833E0,4.8697658E0,0E0,0E0,8.2409954E-1,0E0,0E0,0E0,0E0,7.108077E0,0E0,7.8742332E0,5.3216524E0,0E0,6.0753384E0,0E0,5.015888E-1,8.209947E0,0E0,0E0,0E0,8.069809E0,2.078901E0,2.4962692E0,6.6602907E0,3.274694E0,9.3647003E-1,8.737019E0,0E0,0E0,0E0,2.8074715E0,8.991111E0,6.3561916E-1,0E0,0E0,0E0,1.1051521E0,0E0,0E0,3.931948E0,7.6497364E-1,0E0,0E0,0E0,0E0,0E0,0E0,0E0,0E0,0E0,0E0,0E0,0E0,0E0,0E0,0E0,0E0],"parents":[2147483647,0,0,1,1,2,2,3,3,5,5,6,6,7,7,8,8,9,9,10,10,13,13,14,14,15,15,17,17,18,18,19,19,20,20,21,21,22,22,25,25,30,30,32,32,33,33,35,35,37,37,38,38,42,42,43,43,44,44,45,45,46,46,47,47,48,48,52,52,53,53,54,54,58,58,61,61,62,62],"right_children":[2,4,6,8,-1,10,12,14,16,18,20,-1,-1,22,24,26,-1,28,30,32,34,36,38,-1,-1,40,-1,-1,-1,-1,42,-1,44,46,-1,48,-1,50,52,-1,-1,-1,54,56,58,60,62,64,66,-1,-1,-1,68,70,72,-1,-1,-1,74,-1,-1,76,78,-1,-1,-1,-1,-1,-1,-1,-1,-1,-1,-1,-1,-1,-1,-1,-1],"split_conditions":[-5.6605907E-3,2.365745E-1,9.715108E-1,1.2191586E-1,-5.2541634E-3,3.951412E-1,1.6545532E-2,1.3317943E-1,2.19663E-1,-1.3048513E-1,9.877716E-2,6.28846E-3,-7.3280185E-5,1.0832688E-1,8.705989E-2,3.1164825E-1,4.910081E-3,2.994179E-1,2.029815E-1,-1.077526E-1,9.007465E-1,4.024108E-1,-8.367245E-2,-5.717501E-5,-1.2525994E-3,7.331597E-2,3.052999E-3,-9.563269E-4,-3.9573754E-3,3.837832E-3,2.5971177E-1,2.0842021E-3,2.0085675E-1,1.1359092E-2,-3.8357712E-3,2.927797E-1,2.0322148E-3,5.7738032E-2,4.6777278E-1,-8.14445E-4,-3.146053E-3,3.6356628E-3,4.1412228E-1,9.513331E-2,-5.5562246E-1,7.019142E-3,-1.25E-1,1.1589709E-2,3.6990196E-2,-4.515067E-3,-2.0145571E-3,5.3877234E-3,4.354881E-1,2.5E-1,8.475152E-3,-1.5852343E-3,5.7952115E-3,-1.5353301E-3,-6.953119E-2,1.7775493E-3,-6.1226655E-3,3.0456242E-1,2.0058155E-1,2.9963627E-3,4.838892E-3,-5.17983E-6,2.228435E-3,-1.5436484E-3,6.1226863E-4,-1.9204844E-3,9.615414E-4,3.331592E-3,9.875105E-4,-3.378246E-4,-3.944922E-3,1.4859671E-3,-1.5010374E-3,5.963872E-3,5.7120635E-3],"split_indices":[86,114,30,90,0,85,1,132,90,105,97,0,0,169,0,17,0,5,40,137,30,50,91,0,0,0,0,0,0,0,28,0,19,105,0,29,0,0,27,0,0,0,15,2,135,86,148,1,47,0,0,0,4,142,1,0,0,0,134,0,0,7,1,0,0,0,0,0,0,0,0,0,0,0,0,0,0,0,0],"split_type":[0,0,0,0,0,0,0,0,0,0,0,0,0,0,0,0,0,0,0,0,0,0,0,0,0,0,0,0,0,0,0,0,0,0,0,0,0,0,0,0,0,0,0,0,0,0,0,0,0,0,0,0,0,0,0,0,0,0,0,0,0,0,0,0,0,0,0,0,0,0,0,0,0,0,0,0,0,0,0],"sum_hessian":[4.33E2,1.66E2,2.67E2,1.59E2,7E0,2.54E2,1.3E1,1.36E2,2.3E1,1.5E2,1.04E2,1E1,3E0,1.29E2,7E0,1.8E1,5E0,1.2E1,1.38E2,6.4E1,4E1,1.05E2,2.4E1,3E0,4E0,1.5E1,3E0,3E0,9E0,1.3E1,1.25E2,3E0,6.1E1,3.3E1,7E0,8.6E1,1.9E1,8E0,1.6E1,3E0,1.2E1,7E0,1.18E2,6E0,5.5E1,1.2E1,2.1E1,2.1E1,6.5E1,3E0,5E0,8E0,8E0,1.08E2,1E1,3E0,3E0,5E0,5E1,5E0,7E0,8E0,1.3E1,1.8E1,3E0,4.1E1,2.4E1,5E0,3E0,9.6E1,1.2E1,7E0,3E0,3E0,4.7E1,3E0,5E0,1E1,3E0],"tree_param":{"num_deleted":"0","num_feature":"172","num_nodes":"79","size_leaf_vector":"1"}},{"base_weights":[-4.1008018E-2,-9.146497E-2,4.022472E-1,1.6925734E-2,-3.9516908E-1,-3.0526316E-1,5.887324E-1,-1.92278E-1,1.8629284E-1,3.1612903E-1,-5.186441E-1,-4.3333333E-2,8.181818E-3,8.844444E-1,6.666667E-2,4.714286E-2,-2.920502E-1,4.150289E-1,-7.919463E-2,7.5238097E-1,-2.6363635E-2,3.8666666E-1,-6E-1,4.8461538E-2,1.2857142E-2,-4.3333333E-2,5.1578945E-1,-1.3507853E-1,-8.9387757E-1,8.4918034E-1,1.7522123E-1,2.3294118E-1,-4.8923078E-1,1.2857142E-2,4.6E-2,-1.2857142E-2,4.3333333E-2,4.1428573E-2,-6.611465E-1,4.5384616E-2,-1.2857142E-2,-3.1908396E-1,2.590164E-1,-4.8604652E-2,-1.2857142E-2,4.8867926E-2,-0E0,5.8431375E-1,-1.5555556E-1,3.6103895E-1,-4.3333333E-2,-6.872727E-1,2.6363635E-2,-0E0,-7.5766426E-1,-4.4273505E-1,6.533333E-1,-4.3333333E-2,4.490566E-1,4.8064515E-2,-0E0,-4.4E-1,5.1578945E-1,-1.1515152E-1,7.0666665E-1,-0E0,-8.7906975E-1,4.3333333E-2,-6E-1,-9.1067964E-1,-2.8E-1,4.1428573E-2,-2.6036037E-2,4.3333333E-2,1.2857142E-2,-1.4615386E-2,3.390244E-2,3.0000001E-2,-4.3333333E-2,-3.2162163E-2,2.1111112E-2,4.5384616E-2,-1.2857142E-2,4.3333333E-2,-2.36E-2,1.1176471E-2,4.7931034E-2,4.1428573E-2,-4.1428573E-2,-1.2857142E-2,-4.837838E-2,-1.2857142E-2,-4.1428573E-2,-2.2941178E-2,-4.9310345E-2,2.6363635E-2,-3.1600002E-2],"categories":[],"categories_nodes":[],"categories_segments":[],"categories_sizes":[],"default_left":[0,0,0,0,0,0,0,0,0,0,0,0,0,0,0,0,0,0,0,0,0,0,0,0,0,0,0,0,0,0,0,0,0,0,0,0,0,0,0,0,0,0,0,0,0,0,0,0,0,0,0,0,0,0,0,0,0,0,0,0,0,0,0,0,0,0,0,0,0,0,0,0,0,0,0,0,0,0,0,0,0,0,0,0,0,0,0,0,0,0,0,0,0,0,0,0,0],"id":2,"left_children":[1,3,5,7,9,11,13,15,17,19,21,-1,-1,23,25,-1,27,29,31,33,-1,35,37,-1,-1,-1,39,41,43,45,47,49,51,-1,-1,-1,-1,-1,53,-1,-1,55,57,-1,-1,-1,-1,59,61,63,-1,65,-1,67,69,71,73,-1,75,-1,77,79,81,83,85,87,89,-1,91,93,95,-1,-1,-1,-1,-1,-1,-1,-1,-1,-1,-1,-1,-1,-1,-1,-1,-1,-1,-1,-1,-1,-1,-1,-1,-1,-1],"loss_changes":[9.749774E0,1.296176E1,5.989546E0,1.0274941E1,9.192379E0,2.6420097E0,5.355937E0,1.4739117E1,9.796631E0,5.923868E0,6.655571E0,0E0,0E0,9.494438E-1,5.8473687E0,0E0,1.1125879E1,8.828922E0,9.617639E0,6.3561916E-1,0E0,2.4900954E0,7.376362E0,0E0,0E0,0E0,3.059445E0,6.972571E0,9.722538E-1,3.3198147E0,7.733806E0,6.0923233E0,6.739776E0,0E0,0E0,0E0,0E0,0E0,5.0092735E0,0E0,0E0,7.999316E0,6.6775446E0,0E0,0E0,0E0,0E0,5.616951E0,6.121146E0,6.4363465E0,0E0,3.6249638E0,0E0,5.7200003E0,4.7601013E0,5.984849E0,4.1009545E-1,0E0,4.636489E0,0E0,5.7200003E0,4.1008167E0,3.059445E0,5.9460125E0,2.5135336E0,4.805714E0,9.3647003E-1,0E0,2.9428577E-1,1.3868141E0,5.149891E0,0E0,0E0,0E0,0E0,0E0,0E0,0E0,0E0,0E0,0E0,0E0,0E0,0E0,0E0,0E0,0E0,0E0,0E0,0E0,0E0,0E0,0E0,0E0,0E0,0E0,0E0],"parents":[2147483647,0,0,1,1,2,2,3,3,4,4,5,5,6,6,7,7,8,8,9,9,10,10,13,13,14,14,16,16,17,17,18,18,19,19,21,21,22,22,26,26,27,27,28,28,29,29,30,30,31,31,32,32,38,38,41,41,42,42,47,47,48,48,49,49,51,51,53,53,54,54,55,55,56,56,58,58,60,60,61,61,62,62,63,63,64,64,65,65,66,66,68,68,69,69,70,70],"right_children":[2,4,6,8,10,12,14,16,18,20,22,-1,-1,24,26,-1,28,30,32,34,-1,36,38,-1,-1,-1,40,42,44,46,48,50,52,-1,-1,-1,-1,-1,54,-1,-1,56,58,-1,-1,-1,-1,60,62,64,-1,66,-1,68,70,72,74,-1,76,-1,78,80,82,84,86,88,90,-1,92,94,96,-1,-1,-1,-1,-1,-1,-1,-1,-1,-1,-1,-1,-1,-1,-1,-1,-1,-1,-1,-1,-1,-1,-1,-1,-1,-1],"split_conditions":[4.755691E-1,1.2941168E-1,4.2695826E-1,-5.1676255E-2,-1.511441E-1,1.8705231E-1,3.1189865E-1,1.1200019E-1,2.3553036E-2,3.259087E-1,0E0,-2.725979E-3,2.9870262E-3,2.2495186E-1,4.5073622E-1,3.6997206E-3,6.978922E-2,-6.15873E-3,3.2983774E-1,8.943733E-2,-5.8868374E-3,2.9869288E-1,8.369396E-2,9.589952E-3,4.3108365E-3,-5.509779E-3,2.2157748E-1,9.907403E-2,1.7528778E-2,2.789215E-1,2.8650442E-2,4.007476E-1,2.7181584E-1,7.258112E-4,2.1729684E-3,-3.1842662E-3,1.2359667E-3,5.816551E-4,1.18086115E-1,8.468694E-3,-2.3903307E-3,3.1006072E-2,-1.2540724E-2,-3.5838094E-3,-9.085106E-4,2.7560077E-3,-6.1824353E-4,6.0213108E-2,2.2505077E-2,-1.3350117E-2,-9.35434E-3,-2.2349848E-1,2.8428505E-3,3.4641272E-1,1.910549E-1,4.8735168E-2,8.026718E-2,-1.125743E-2,-1.1318121E-1,5.891278E-3,9.503222E-3,1.4808072E-1,7.924299E-2,2.5856608E-1,9.75163E-2,1.3742691E-1,7.5014144E-2,3.8886366E-3,8.500197E-3,-3.7187837E-2,7.1766937E-1,5.0138608E-3,-1.871733E-3,1.9647619E-3,7.5190945E-4,-1.7406709E-4,3.7305707E-3,1.785213E-3,-3.2827437E-3,-1.7868428E-3,9.5177945E-3,1.0881022E-3,-2.3031323E-3,3.1096942E-3,-1.2099728E-3,5.867948E-4,4.0205442E-3,4.500914E-3,-1.8136743E-3,-1.3618943E-3,-3.1856801E-3,-1.6634483E-3,-2.0865267E-3,-2.1540956E-3,-3.9715385E-3,6.5002493E-3,-4.90892E-3],"split_indices":[68,114,48,94,115,116,19,29,135,85,147,0,0,0,26,0,96,86,68,0,0,7,23,0,0,0,41,2,1,116,47,134,8,0,0,0,0,0,84,0,0,51,137,0,0,0,0,128,94,102,0,115,0,6,2,37,0,0,89,0,113,2,41,17,2,16,0,0,1,134,48,0,0,0,0,0,0,0,0,0,0,0,0,0,0,0,0,0,0,0,0,0,0,0,0,0,0],"split_type":[0,0,0,0,0,0,0,0,0,0,0,0,0,0,0,0,0,0,0,0,0,0,0,0,0,0,0,0,0,0,0,0,0,0,0,0,0,0,0,0,0,0,0,0,0,0,0,0,0,0,0,0,0,0,0,0,0,0,0,0,0,0,0,0,0,0,0,0,0,0,0,0,0,0,0,0,0,0,0,0,0,0,0,0,0,0,0,0,0,0,0,0,0,0,0,0,0],"sum_hessian":[4.36E2,3.92E2,4.4E1,2.89E2,1.03E2,9E0,3.5E1,1.29E2,1.6E2,1.5E1,8.8E1,4E0,5E0,2.2E1,1.3E1,1E1,1.19E2,8.6E1,7.4E1,1E1,5E0,7E0,8.1E1,1.9E1,3E0,4E0,9E0,9.5E1,2.4E1,3E1,5.6E1,4.2E1,3.2E1,3E0,7E0,3E0,4E0,3E0,7.8E1,6E0,3E0,6.5E1,3E1,2.1E1,3E0,2.6E1,4E0,2.5E1,3.1E1,3.8E1,4E0,2.7E1,5E0,1E1,6.8E1,5.8E1,7E0,4E0,2.6E1,1.5E1,1E1,2.2E1,9E0,1.6E1,2.2E1,6E0,2.1E1,4E0,6E0,5.1E1,1.7E1,3E0,5.5E1,4E0,3E0,6E0,2E1,6E0,4E0,1.8E1,4E0,6E0,3E0,4E0,1.2E1,8E0,1.4E1,3E0,3E0,3E0,1.8E1,3E0,3E0,8E0,4.3E1,5E0,1.2E1],"tree_param":{"num_deleted":"0","num_feature":"172","num_nodes":"97","size_leaf_vector":"1"}},{"base_weights":[4.926884E-2,4.8661417E-1,-2.3328966E-2,6.0695654E-1,-6E-1,-5.9754435E-2,8.3225805E-1,7.402062E-1,-9.4736844E-2,-4.1428573E-2,-1.2857142E-2,-4.0636942E-1,3.4315426E-2,1.2857142E-2,4.76E-2,8.805195E-1,1.8095239E-1,4.3333333E-2,-4.4545453E-2,4.4545453E-2,-5.020408E-1,2.4125561E-1,-9.521127E-2,4.910448E-2,8.181818E-3,-2.6363635E-2,4.4545453E-2,-7.290323E-1,-1.0545454E-1,-2.93617E-1,3.8305086E-1,-4.3366337E-1,3.8431372E-2,2.6363635E-2,-8.8915664E-1,1.902439E-1,-4.6E-2,1.3103448E-1,-4.6842106E-2,-9.268293E-2,5.240876E-1,4.3333333E-2,-5.5698925E-1,-4.647059E-2,1.0794979E-1,-2.923077E-1,-4.915493E-2,5.7419354E-1,-4.4545453E-2,4.5384616E-2,-4.5882353E-1,6.9411767E-1,-6.32E-1,5.938931E-1,-4.1428573E-2,4.1428573E-2,-6.643678E-1,4.27957E-1,-9.3877554E-2,-4.1428573E-2,1.2857142E-2,4.76E-2,-4.1428573E-2,-4.4545453E-2,1.2857142E-2,1.2857142E-2,4.4545453E-2,-4.6842106E-2,1.2857142E-2,4.1851852E-2,9.607843E-3,-3.9113924E-2,2.1111112E-2,4.1320756E-2,-4.6341466E-3,-4.714286E-2,2.2834647E-3],"categories":[],"categories_nodes":[],"categories_segments":[],"categories_sizes":[],"default_left":[0,0,0,0,0,0,0,0,0,0,0,0,0,0,0,0,0,0,0,0,0,0,0,0,0,0,0,0,0,0,0,0,0,0,0,0,0,0,0,0,0,0,0,0,0,0,0,0,0,0,0,0,0,0,0,0,0,0,0,0,0,0,0,0,0,0,0,0,0,0,0,0,0,0,0,0,0],"id":3,"left_children":[1,3,5,7,9,11,13,15,17,-1,-1,19,21,-1,-1,23,25,-1,-1,-1,27,29,31,-1,-1,-1,-1,33,35,37,39,41,43,-1,45,47,-1,49,-1,51,53,-1,55,-1,57,59,-1,61,-1,-1,63,65,67,69,-1,-1,71,73,75,-1,-1,-1,-1,-1,-1,-1,-1,-1,-1,-1,-1,-1,-1,-1,-1,-1,-1],"loss_changes":[1.4165018E1,8.486405E0,1.1837123E1,5.4758816E0,2.9428577E-1,1.1994285E1,8.2409954E-1,3.620016E0,7.6601915E0,0E0,0E0,9.927578E0,7.759124E0,0E0,0E0,2.6084137E0,5.550736E0,0E0,0E0,0E0,6.494705E0,8.5216055E0,8.076471E0,0E0,0E0,0E0,0E0,9.624777E0,6.7841334E0,6.560902E0,6.0054197E0,8.308795E0,8.546592E0,0E0,2.0556488E0,8.733826E0,0E0,6.8958306E0,0E0,8.911997E0,6.6905537E0,0E0,7.177065E0,0E0,7.7715464E0,2.078901E0,0E0,8.621334E0,0E0,0E0,2.8074715E0,5.015888E-1,3.5765228E0,6.2146816E0,0E0,0E0,5.774397E0,9.758244E0,8.818972E0,0E0,0E0,0E0,0E0,0E0,0E0,0E0,0E0,0E0,0E0,0E0,0E0,0E0,0E0,0E0,0E0,0E0,0E0],"parents":[2147483647,0,0,1,1,2,2,3,3,4,4,5,5,6,6,7,7,8,8,11,11,12,12,15,15,16,16,20,20,21,21,22,22,27,27,28,28,29,29,30,30,31,31,32,32,34,34,35,35,37,37,39,39,40,40,42,42,44,44,45,45,47,47,50,50,51,51,52,52,53,53,56,56,57,57,58,58],"right_children":[2,4,6,8,10,12,14,16,18,-1,-1,20,22,-1,-1,24,26,-1,-1,-1,28,30,32,-1,-1,-1,-1,34,36,38,40,42,44,-1,46,48,-1,50,-1,52,54,-1,56,-1,58,60,-1,62,-1,-1,64,66,68,70,-1,-1,72,74,76,-1,-1,-1,-1,-1,-1,-1,-1,-1,-1,-1,-1,-1,-1,-1,-1,-1,-1],"split_conditions":[1.6486323E-1,1.0323643E-1,9.715108E-1,5.047635E-1,7.5014144E-2,2.9679233E-1,5.512784E-1,2.0505445E-1,-5.1875174E-2,-5.717938E-3,-4.792878E-3,1.8363434E-1,-7.143489E-2,9.267997E-4,5.6794723E-3,4.8263976E-1,1.335149E-1,2.5606249E-3,-2.004855E-3,2.9340799E-3,-1.3435822E-3,2.608696E-1,-1.577672E-2,2.7694704E-3,6.98347E-3,-4.195727E-3,3.989493E-3,1.6405392E-1,2.6837492E-1,2.0930253E-1,-1.8991867E-2,2.2497384E-1,-2.4643771E-2,9.320954E-3,2.4230139E-1,4.2433718E-1,-3.4890154E-3,2.778199E-1,-2.4164226E-3,-3.4695455E-1,9.876858E-2,2.816677E-3,2.6483107E-1,-4.4490523E-3,1.6211867E-1,8.3278604E-2,-3.1253602E-3,1.8087749E-1,-5.6179552E-3,3.923568E-3,1.6494842E-1,3.31616E-1,3.378548E-1,3.7290263E-1,-4.4553624E-3,2.0384162E-3,1E0,4.2764717E-1,1.62902E-1,-2.2241385E-3,2.1703094E-3,2.6901802E-3,-4.7372864E-3,-5.145947E-3,6.708568E-4,6.37611E-4,2.0527432E-3,-2.9215836E-3,2.1847841E-4,1.8698763E-3,4.8341416E-4,-3.5580103E-3,1.5985727E-3,1.959246E-3,-1.020691E-3,-2.5423393E-3,8.3510204E-5],"split_indices":[19,113,30,28,0,50,4,169,115,0,0,49,116,0,0,9,47,0,0,0,87,29,90,0,0,0,0,35,46,29,112,6,109,0,46,6,0,6,0,114,136,0,17,0,18,0,0,39,0,0,29,6,45,9,0,0,61,25,18,0,0,0,0,0,0,0,0,0,0,0,0,0,0,0,0,0,0],"split_type":[0,0,0,0,0,0,0,0,0,0,0,0,0,0,0,0,0,0,0,0,0,0,0,0,0,0,0,0,0,0,0,0,0,0,0,0,0,0,0,0,0,0,0,0,0,0,0,0,0,0,0,0,0,0,0,0,0,0,0,0,0,0,0,0,0,0,0,0,0,0,0,0,0,0,0,0,0],"sum_hessian":[4.44E2,6.3E1,3.81E2,5.7E1,6E0,3.66E2,1.5E1,4.8E1,9E0,3E0,3E0,7.8E1,2.88E2,3E0,1.2E1,3.8E1,1E1,4E0,5E0,5E0,7.3E1,1.11E2,1.77E2,3.3E1,5E0,5E0,5E0,4.6E1,2.7E1,2.3E1,8.8E1,5E1,1.27E2,5E0,4.1E1,2E1,7E0,1.4E1,9E0,2E1,6.8E1,4E0,4.6E1,8E0,1.19E2,6E0,3.5E1,1.5E1,5E0,6E0,8E0,8E0,1.2E1,6.5E1,3E0,3E0,4.3E1,4.6E1,7.3E1,3E0,3E0,1.2E1,3E0,5E0,3E0,3E0,5E0,9E0,3E0,4E1,2.5E1,3.9E1,4E0,2.6E1,2E1,1E1,6.3E1],"tree_param":{"num_deleted":"0","num_feature":"172","num_nodes":"77","size_leaf_vector":"1"}},{"base_weights":[-4.180418E-3,1.7772779E-2,-4.714286E-2,2.5232068E-1,-6.707504E-2,8.7906975E-1,1.11794874E-1,-7.3714286E-1,-2.8756058E-2,1.2857142E-2,4.837838E-2,1.0526315E-2,7.92E-1,1.2857142E-2,-4.7931034E-2,2.4121211E-1,-1.2703297E-1,2.9174313E-1,-4.7301587E-1,4.6842106E-2,1.2857142E-2,4.2411348E-1,-7.92E-1,-5.0280374E-1,-1.0888252E-2,-4.3333333E-2,3.9405942E-1,4.3333333E-2,-6.872727E-1,7.4328357E-1,1.3066667E-1,-4.6842106E-2,-1.2857142E-2,6.666667E-2,-6.888889E-1,-4.714286E-2,4.8024315E-2,-4.1428573E-2,4.8210526E-1,-0E0,-8.7906975E-1,-1.2857142E-2,8.4918034E-1,3.0461538E-1,-4.4545453E-2,-4.4545453E-2,6.9411767E-1,2.1111112E-2,-8.191781E-1,7.5135136E-1,-4.0273037E-2,3.0000001E-2,-1.4615386E-2,-4.1428573E-2,4.1428573E-2,-1.2857142E-2,-4.837838E-2,4.882353E-2,8.181818E-3,-2.2941178E-2,2.8367346E-2,4.4545453E-2,1.2857142E-2,-1.1176471E-2,-4.8947368E-2,-0E0,4.7931034E-2,1.3065693E-2,-1.5222929E-2],"categories":[],"categories_nodes":[],"categories_segments":[],"categories_sizes":[],"default_left":[0,0,0,0,0,0,0,0,0,0,0,0,0,0,0,0,0,0,0,0,0,0,0,0,0,0,0,0,0,0,0,0,0,0,0,0,0,0,0,0,0,0,0,0,0,0,0,0,0,0,0,0,0,0,0,0,0,0,0,0,0,0,0,0,0,0,0,0,0],"id":4,"left_children":[1,3,-1,5,7,9,11,13,15,-1,-1,17,19,-1,-1,21,23,25,27,-1,-1,29,31,33,35,-1,37,-1,39,41,43,-1,-1,45,47,-1,49,-1,51,53,55,-1,57,59,-1,-1,61,-1,63,65,67,-1,-1,-1,-1,-1,-1,-1,-1,-1,-1,-1,-1,-1,-1,-1,-1,-1,-1],"loss_changes":[9.466747E0,8.872927E0,0E0,1.0288593E1,8.296128E0,9.3647003E-1,6.63171E0,4.0471134E0,8.2154455E0,0E0,0E0,1.1677178E1,7.285223E-1,0E0,0E0,1.5721672E1,9.874855E0,6.583067E0,9.321517E0,0E0,0E0,6.4670343E0,7.285223E-1,5.7545786E0,9.692989E0,0E0,5.601284E0,0E0,3.6249638E0,3.7174377E0,6.740881E0,0E0,0E0,8.400748E0,6.0756474E0,0E0,1.0302003E1,0E0,4.4551754E0,4.805714E0,9.3647003E-1,0E0,2.467619E0,6.6598415E0,0E0,0E0,5.015888E-1,0E0,3.2439098E0,2.8810444E0,1.1716468E1,0E0,0E0,0E0,0E0,0E0,0E0,0E0,0E0,0E0,0E0,0E0,0E0,0E0,0E0,0E0,0E0,0E0,0E0],"parents":[2147483647,0,0,1,1,3,3,4,4,5,5,6,6,7,7,8,8,11,11,12,12,15,15,16,16,17,17,18,18,21,21,22,22,23,23,24,24,26,26,28,28,29,29,30,30,33,33,34,34,36,36,38,38,39,39,40,40,42,42,43,43,46,46,48,48,49,49,50,50],"right_children":[2,4,-1,6,8,10,12,14,16,-1,-1,18,20,-1,-1,22,24,26,28,-1,-1,30,32,34,36,-1,38,-1,40,42,44,-1,-1,46,48,-1,50,-1,52,54,56,-1,58,60,-1,-1,62,-1,64,66,68,-1,-1,-1,-1,-1,-1,-1,-1,-1,-1,-1,-1,-1,-1,-1,-1,-1,-1],"split_conditions":[2.4684711E-1,-1.2279538E-2,-4.4531613E-3,-2.0258349E-1,1.5100213E-2,5.7738032E-2,2.2818138E-1,-1.7077114E-1,4.1214886E-1,6.6342964E-3,2.8546674E-3,2.8561175E-1,2.7113536E-1,9.741077E-4,-3.5335408E-3,5.992625E-2,8.9210905E-2,-3.815237E-2,3.9547315E-1,2.7873758E-3,1.0750507E-2,4.060704E-2,2.7621177E-1,-1.0790306E-1,-4.057271E-1,-2.6931495E-3,2.4313776E-1,7.569091E-3,2.6153925E-1,2.423859E-2,2.6399985E-1,-5.0326493E-3,-4.0519563E-3,2.121212E-1,-2.5435386E-2,-6.868464E-3,-5.6605907E-3,-2.611776E-3,5.7792544E-1,9.820948E-2,1.1281046E-1,-7.325579E-4,2.774098E-1,-8.198005E-2,-6.010949E-3,-4.4003977E-3,7.902184E-2,2.3381282E-3,3.2894683E-1,5.4737496E-1,3.9144754E-1,1.9364953E-3,-6.1931816E-4,-5.2808817E-3,1.1685238E-3,-1.8042999E-3,-2.1574271E-3,3.2282085E-3,4.32631E-3,-2.6423777E-3,1.750309E-3,9.300856E-4,2.061794E-3,-2.3396248E-4,-2.295003E-3,2.1375006E-3,3.3097358E-3,9.536468E-4,-1.682938E-3],"split_indices":[107,124,0,115,83,0,170,91,11,0,0,7,1,0,0,93,0,86,25,0,0,128,3,95,115,0,42,0,46,39,7,0,0,30,104,0,86,0,42,2,16,0,7,129,0,0,0,0,28,35,85,0,0,0,0,0,0,0,0,0,0,0,0,0,0,0,0,0,0],"split_type":[0,0,0,0,0,0,0,0,0,0,0,0,0,0,0,0,0,0,0,0,0,0,0,0,0,0,0,0,0,0,0,0,0,0,0,0,0,0,0,0,0,0,0,0,0,0,0,0,0,0,0,0,0,0,0,0,0,0,0,0,0,0,0,0,0,0,0,0,0],"sum_hessian":[4.54E2,4.44E2,1E1,1.18E2,3.26E2,2.1E1,9.7E1,1.7E1,3.09E2,3E0,1.8E1,8.5E1,1.2E1,3E0,1.4E1,8.2E1,2.27E2,5.4E1,3.1E1,9E0,3E0,7E1,1.2E1,5.3E1,1.74E2,4E0,5E1,4E0,2.7E1,3.3E1,3.7E1,9E0,3E0,1.3E1,4E1,1E1,1.64E2,3E0,4.7E1,6E0,2.1E1,3E0,3E1,3.2E1,5E0,5E0,8E0,4E0,3.6E1,1.8E1,1.46E2,4.1E1,6E0,3E0,3E0,3E0,1.8E1,2.5E1,5E0,8E0,2.4E1,5E0,3E0,8E0,2.8E1,4E0,1.4E1,6.8E1,7.8E1],"tree_param":{"num_deleted":"0","num_feature":"172","num_nodes":"69","size_leaf_vector":"1"}},{"base_weights":[1.9672131E-3,5.6235296E-1,-5.511432E-2,6.8101263E-1,-4.1428573E-2,-9.329962E-2,6.780488E-1,9.0877193E-1,7.826087E-2,-6.207792E-1,-3.6083914E-2,4.8064515E-2,-8.181818E-3,4.882353E-2,1.2857142E-2,-6E-1,4.4545453E-2,-7.507246E-1,2.1111112E-2,-2.6049204E-3,-4.76E-2,-1.2857142E-2,-4.1428573E-2,-0E0,-9.0877193E-1,5.2131146E-1,-5.356577E-2,-4.1428573E-2,4.1428573E-2,-1.2857142E-2,-4.882353E-2,8.042553E-1,-3.8666666E-1,-1.544086E-1,2.2634731E-1,-0E0,4.8461538E-2,1.2857142E-2,-4.3333333E-2,-3.3810887E-2,-5.1111114E-1,-7.263158E-1,3.47651E-1,-5.652174E-3,2.137255E-2,-2.963964E-2,4.1428573E-2,-1.2857142E-2,-4.5384616E-2,2.1205675E-2,-4.3333333E-2],"categories":[],"categories_nodes":[],"categories_segments":[],"categories_sizes":[],"default_left":[0,0,0,0,0,0,0,0,0,0,0,0,0,0,0,0,0,0,0,0,0,0,0,0,0,0,0,0,0,0,0,0,0,0,0,0,0,0,0,0,0,0,0,0,0,0,0,0,0,0,0],"id":5,"left_children":[1,3,5,7,-1,9,11,13,15,17,19,-1,-1,-1,-1,21,-1,23,-1,25,-1,-1,-1,27,29,31,33,-1,-1,-1,-1,35,37,39,41,-1,-1,-1,-1,43,45,47,49,-1,-1,-1,-1,-1,-1,-1,-1],"loss_changes":[1.4700584E1,7.2818613E0,1.1605516E1,5.2883873E0,0E0,1.1859351E1,5.04562E0,1.0083523E0,6.6350203E0,5.4093647E0,1.0865662E1,0E0,0E0,0E0,0E0,2.9428577E-1,0E0,4.0934258E0,0E0,9.19177E0,0E0,0E0,0E0,4.805714E0,1.0083523E0,8.032906E0,8.915973E0,0E0,0E0,0E0,0E0,3.1180353E0,2.4900954E0,9.938437E0,9.737776E0,0E0,0E0,0E0,0E0,6.370166E0,6.623518E0,5.752344E-1,7.0568323E0,0E0,0E0,0E0,0E0,0E0,0E0,0E0,0E0],"parents":[2147483647,0,0,1,1,2,2,3,3,5,5,6,6,7,7,8,8,9,9,10,10,15,15,17,17,19,19,23,23,24,24,25,25,26,26,31,31,32,32,33,33,34,34,39,39,40,40,41,41,42,42],"right_children":[2,4,6,8,-1,10,12,14,16,18,20,-1,-1,-1,-1,22,-1,24,-1,26,-1,-1,-1,28,30,32,34,-1,-1,-1,-1,36,38,40,42,-1,-1,-1,-1,44,46,48,50,-1,-1,-1,-1,-1,-1,-1,-1],"split_conditions":[7.440281E-2,8.4109925E-2,9.715108E-1,-1.4338811E-2,-8.045606E-3,7.775903E-2,1.4088626E-2,2.2897452E-2,6.287337E-2,8.406074E-1,8.795841E-1,4.4945786E-3,-9.0252426E-5,2.4695864E-3,3.4433387E-3,7.0825316E-2,5.1820296E-4,4.1214886E-1,1.3781203E-3,1.6699775E-1,-4.7151684E-3,-8.731576E-4,-1.5290978E-3,1.827088E-1,3.1787893E-1,4.639182E-1,5.0064695E-1,-4.0574E-3,2.0912588E-3,-6.5344386E-5,-2.5472185E-3,-8.733573E-1,8.694668E-2,1.0653232E-1,-4.5692182E-1,2.0377894E-3,3.345E-3,4.646646E-4,-4.1850484E-3,4.450447E-1,7.1254563E-1,3.7826654E-1,6.0866684E-1,-1.9916511E-4,1.6290391E-3,-4.798915E-3,1.1785055E-2,-9.2754046E-5,-1.1780343E-2,1.8986792E-3,-9.170643E-3],"split_indices":[0,113,30,170,0,22,1,1,170,31,31,0,0,0,0,0,0,11,0,19,0,0,0,8,9,44,50,0,0,0,0,116,0,0,131,0,0,0,0,26,43,4,11,0,0,0,0,0,0,0,0],"split_type":[0,0,0,0,0,0,0,0,0,0,0,0,0,0,0,0,0,0,0,0,0,0,0,0,0,0,0,0,0,0,0,0,0,0,0,0,0,0,0,0,0,0,0,0,0,0,0,0,0,0,0],"sum_hessian":[4.57E2,4.2E1,4.15E2,3.9E1,3E0,3.95E2,2E1,2.8E1,1.1E1,3.8E1,3.57E2,1.5E1,5E0,2.5E1,3E0,6E0,5E0,3.4E1,4E0,3.45E2,1.2E1,3E0,3E0,6E0,2.8E1,3E1,3.15E2,3E0,3E0,3E0,2.5E1,2.3E1,7E0,2.32E2,8.3E1,4E0,1.9E1,3E0,4E0,1.74E2,5.8E1,9E0,7.4E1,1.49E2,2.5E1,5.5E1,3E0,3E0,6E0,7E1,4E0],"tree_param":{"num_deleted":"0","num_feature":"172","num_nodes":"51","size_leaf_vector":"1"}},{"base_weights":[4.2744656E-3,1.2349727E-1,-1.8709677E-1,6.3950616E-1,3.3688698E-2,-3.3106384E-1,1.2897196E-1,8.666667E-1,-6E-1,-5.8133334E-2,3.9789474E-1,1.01298705E-1,-5.3962266E-1,2.4536082E-1,-4.4545453E-2,4.9016394E-2,-0E0,-1.2857142E-2,-4.1428573E-2,-4.1538462E-1,5.5438597E-2,5.6235296E-1,-4.4545453E-2,-7.263158E-1,3.6949152E-1,-7.061947E-1,-1.2340426E-1,-1.3488372E-1,5.418182E-1,5.1578945E-1,-6.547945E-1,-6.899563E-2,5.5789477E-1,-2.1111112E-2,6.727273E-1,-1.2857142E-2,-4.5384616E-2,4.777778E-2,-1.1515152E-1,4.1428573E-2,-8.0186915E-1,4.2608696E-1,-6.32E-1,-4.647059E-2,3.6296296E-1,8.5142857E-1,-0E0,4.5384616E-2,-1.2857142E-2,6E-1,-9.147541E-1,-6E-1,5.2406415E-2,8.7317073E-1,-2.2352941E-1,7.969231E-1,-0E0,-4.5384616E-2,3.7142858E-1,-9.031579E-1,-0E0,4.6E-2,-2.1111112E-2,-4.6842106E-2,1.2857142E-2,-2.6363635E-2,4.647059E-2,1.2857142E-2,4.7931034E-2,4.1428573E-2,-3.8666666E-1,1.2857142E-2,4.1428573E-2,-4.8909094E-2,-1.2857142E-2,-8.5142857E-1,2.1111112E-2,3.1681415E-1,-3.44E-1,1.2857142E-2,4.8285715E-2,2.1111112E-2,-4.3333333E-2,8.181818E-3,9.054545E-1,-4.1428573E-2,4.1428573E-2,-4.1428573E-2,4.6E-2,-0E0,-4.9310345E-2,4.1428573E-2,-4.1428573E-2,-4.3333333E-2,1.2857142E-2,-4.7931034E-2,-1.2857142E-2,-7.358491E-3,3.590164E-2,1.3448276E-2,-3.595745E-2,4.877551E-2,1.2857142E-2],"categories":[],"categories_nodes":[],"categories_segments":[],"categories_sizes":[],"default_left":[0,0,0,0,0,0,0,0,0,0,0,0,0,0,0,0,0,0,0,0,0,0,0,0,0,0,0,0,0,0,0,0,0,0,0,0,0,0,0,0,0,0,0,0,0,0,0,0,0,0,0,0,0,0,0,0,0,0,0,0,0,0,0,0,0,0,0,0,0,0,0,0,0,0,0,0,0,0,0,0,0,0,0,0,0,0,0,0,0,0,0,0,0,0,0,0,0,0,0,0,0,0,0],"id":6,"left_children":[1,3,5,7,9,11,13,15,17,19,21,23,25,27,-1,-1,-1,-1,-1,29,31,33,-1,35,37,39,41,43,45,47,49,51,53,-1,55,-1,-1,-1,57,-1,59,61,63,-1,65,67,69,-1,-1,71,73,75,77,79,81,83,85,-1,87,89,91,-1,-1,-1,-1,-1,-1,-1,-1,-1,93,-1,-1,-1,-1,95,-1,97,99,-1,-1,-1,-1,-1,101,-1,-1,-1,-1,-1,-1,-1,-1,-1,-1,-1,-1,-1,-1,-1,-1,-1,-1],"loss_changes":[1.0146823E1,1.2642792E1,7.7999024E0,1.16901245E1,7.887723E0,1.0666495E1,6.3953424E0,3.39847E0,2.9428577E-1,7.6550813E0,1.02854805E1,8.643971E0,5.385227E0,5.5444593E0,0E0,0E0,0E0,0E0,0E0,1.0326189E1,8.977627E0,4.7856207E0,0E0,5.752344E-1,8.517998E0,8.625879E0,6.722753E0,8.729709E0,4.6131945E0,3.059445E0,1.22120495E1,7.4517264E0,7.183936E0,0E0,3.216673E0,0E0,0E0,0E0,6.5851684E0,0E0,4.3452873E0,5.062396E0,3.5765228E0,0E0,7.092925E0,8.699713E-1,3.5241904E0,0E0,0E0,2.9428577E-1,1.0228806E0,5.748507E0,9.851783E0,9.2224216E-1,3.7575164E0,2.052782E0,4.805714E0,0E0,7.302286E0,3.5628014E0,4.805714E0,0E0,0E0,0E0,0E0,0E0,0E0,0E0,0E0,0E0,2.4900954E0,0E0,0E0,0E0,0E0,8.699713E-1,0E0,1.0627907E1,8.764981E0,0E0,0E0,0E0,0E0,0E0,1.0003052E0,0E0,0E0,0E0,0E0,0E0,0E0,0E0,0E0,0E0,0E0,0E0,0E0,0E0,0E0,0E0,0E0,0E0,0E0],"parents":[2147483647,0,0,1,1,2,2,3,3,4,4,5,5,6,6,7,7,8,8,9,9,10,10,11,11,12,12,13,13,19,19,20,20,21,21,23,23,24,24,25,25,26,26,27,27,28,28,29,29,30,30,31,31,32,32,34,34,38,38,40,40,41,41,42,42,44,44,45,45,46,46,49,49,50,50,51,51,52,52,53,53,54,54,55,55,56,56,58,58,59,59,60,60,70,70,75,75,77,77,78,78,84,84],"right_children":[2,4,6,8,10,12,14,16,18,20,22,24,26,28,-1,-1,-1,-1,-1,30,32,34,-1,36,38,40,42,44,46,48,50,52,54,-1,56,-1,-1,-1,58,-1,60,62,64,-1,66,68,70,-1,-1,72,74,76,78,80,82,84,86,-1,88,90,92,-1,-1,-1,-1,-1,-1,-1,-1,-1,94,-1,-1,-1,-1,96,-1,98,100,-1,-1,-1,-1,-1,102,-1,-1,-1,-1,-1,-1,-1,-1,-1,-1,-1,-1,-1,-1,-1,-1,-1,-1],"split_conditions":[6.729479E-2,-1.4214798E-2,5.445913E-1,1.9790884E-3,1E0,4.3694177E-1,4.40241E-1,8E-1,1.8537304E-1,2.389768E-1,3.6104992E-1,-1.8431826E-1,2.5E-1,1.3696719E-2,-6.3029765E-3,4.16868E-3,-2.1399544E-3,-3.4844854E-3,-2.048943E-3,7.944506E-2,1.8985102E-2,0E0,-1.3404978E-3,7.75048E-2,2.9836553E-1,-6.108968E-2,1.2691487E-1,1.6986246E-1,1.0915842E-1,1.578852E-1,-8.178689E-3,1.2191325E-2,5.9180534E-1,-9.6444687E-4,1.3102148E-2,-1.7134075E-3,-4.297028E-3,1.8496289E-3,2.6625797E-1,6.2825843E-3,2.7348319E-2,3.9569426E-1,5.156996E-3,-2.7883209E-3,4.985358E-3,5.799298E-3,5.121109E-1,2.4716808E-3,-1.147987E-2,8.3278604E-2,2.609094E-1,4.861422E-1,-1.9807266E-2,1.0414176E-3,2.726015E-2,-2.879544E-1,2.7272728E-1,-4.683277E-3,1.8123335E-1,8.096182E-2,1.6954038E-1,1.986696E-3,-3.4420267E-3,-2.5025872E-3,1.1200559E-3,-1.9360315E-4,2.6706958E-3,2.3300862E-3,5.4285983E-3,9.720406E-3,7.1180785E-1,1.4982856E-3,2.226074E-3,-2.3333256E-3,-1.4155342E-3,4.4990513E-1,9.136679E-4,-5.52169E-2,3.181585E-1,6.4364074E-5,1.6729098E-3,5.585538E-3,-3.030406E-3,1.9104315E-3,8.020884E-1,-2.6771221E-3,1.2212832E-3,-4.313016E-3,4.025351E-3,4.4006333E-4,-2.429838E-3,5.5679637E-3,-4.541071E-3,-3.54008E-3,1.6188528E-3,-3.858106E-3,-3.3873841E-3,-1.189625E-3,1.4278956E-3,9.866524E-4,-1.097953E-3,3.2652586E-3,5.21332E-3],"split_indices":[126,124,11,134,144,13,114,63,0,29,7,128,148,105,0,0,0,0,0,31,94,142,0,0,17,102,41,97,47,0,124,47,35,0,1,0,0,0,3,0,87,6,87,0,51,1,6,0,0,0,7,11,113,1,103,126,64,0,7,49,84,0,0,0,0,0,0,0,0,0,4,0,0,0,0,4,0,111,6,0,0,0,0,0,31,0,0,0,0,0,0,0,0,0,0,0,0,0,0,0,0,0,0],"split_type":[0,0,0,0,0,0,0,0,0,0,0,0,0,0,0,0,0,0,0,0,0,0,0,0,0,0,0,0,0,0,0,0,0,0,0,0,0,0,0,0,0,0,0,0,0,0,0,0,0,0,0,0,0,0,0,0,0,0,0,0,0,0,0,0,0,0,0,0,0,0,0,0,0,0,0,0,0,0,0,0,0,0,0,0,0,0,0,0,0,0,0,0,0,0,0,0,0,0,0,0,0,0,0],"sum_hessian":[4.44E2,2.74E2,1.7E2,4E1,2.34E2,1.17E2,5.3E1,3.4E1,6E0,1.87E2,4.7E1,3.8E1,7.9E1,4.8E1,5E0,3E1,4E0,3E0,3E0,4.5E1,1.42E2,4.2E1,5E0,9E0,2.9E1,5.6E1,2.3E1,2.1E1,2.7E1,9E0,3.6E1,1.14E2,2.8E1,4E0,3.8E1,3E0,6E0,1.3E1,1.6E1,3E0,5.3E1,1.1E1,1.2E1,8E0,1.3E1,1.7E1,1E1,6E0,3E0,6E0,3E1,2.1E1,9.3E1,2E1,8E0,3.2E1,6E0,6E0,1E1,4.7E1,6E0,7E0,4E0,9E0,3E0,5E0,8E0,3E0,1.4E1,3E0,7E0,3E0,3E0,2.7E1,3E0,1.7E1,4E0,5.6E1,3.7E1,3E0,1.7E1,4E0,4E0,5E0,2.7E1,3E0,3E0,3E0,7E0,4E0,4.3E1,3E0,3E0,4E0,3E0,1.4E1,3E0,2.6E1,3E1,1.4E1,2.3E1,2.4E1,3E0],"tree_param":{"num_deleted":"0","num_feature":"172","num_nodes":"103","size_leaf_vector":"1"}},{"base_weights":[4.2363433E-3,-2.5144175E-2,8.3225805E-1,2.3153527E-1,-1.2408294E-1,4.76E-2,1.2857142E-2,4.1948718E-1,-5.489362E-1,1.2964824E-1,-2.4195804E-1,-1.1515152E-1,5.2638036E-1,9.4736844E-2,-4.7931034E-2,8.3225805E-1,-0E0,-4.745946E-1,-6.44898E-2,4.3333333E-2,-4.72E-1,5.847134E-1,-4.1428573E-2,-2.6363635E-2,4.3333333E-2,1.2857142E-2,4.76E-2,-4.2745098E-1,1.8319328E-1,-1.1304348E-1,-6.820513E-1,7.225131E-2,-5.418182E-1,-0E0,-4.5384616E-2,9.0877193E-1,3.9405942E-1,-4.7391307E-2,-0E0,5.868853E-1,-2.3389831E-1,-5.069767E-1,5.1111114E-1,1.2E-1,-7.9417473E-1,6.3404256E-1,-1.08965516E-1,-7.860465E-1,2.923077E-1,4.1428573E-2,-4.1428573E-2,4.882353E-2,1.2857142E-2,-1.027027E-1,6.738461E-1,4.3333333E-2,-3.7142858E-1,2.3636363E-1,4.7931034E-2,1.6571428E-1,-7.92E-1,9.4736844E-2,-4.76E-2,4.647059E-2,-8.181818E-3,-2.1111112E-2,4.1428573E-2,-0E0,-8.989011E-1,8.5945946E-1,-8.181818E-3,3.04E-2,-4.714286E-2,1.2857142E-2,-4.837838E-2,4.1428573E-2,-1.2857142E-2,1.8571429E-2,-3.4705885E-2,4.1929822E-2,-2.1111112E-2,-4.4545453E-2,8.181818E-3,3.8695652E-2,-4.4545453E-2,-4.1428573E-2,2.034483E-2,-1.2857142E-2,-4.6842106E-2,-2.6363635E-2,4.3333333E-2,4.1428573E-2,-4.1428573E-2,-1.2857142E-2,-4.6941176E-2,1.2857142E-2,4.8064515E-2,-1.0645161E-2,3.606061E-2],"categories":[],"categories_nodes":[],"categories_segments":[],"categories_sizes":[],"default_left":[0,0,0,0,0,0,0,0,0,0,0,0,0,0,0,0,0,0,0,0,0,0,0,0,0,0,0,0,0,0,0,0,0,0,0,0,0,0,0,0,0,0,0,0,0,0,0,0,0,0,0,0,0,0,0,0,0,0,0,0,0,0,0,0,0,0,0,0,0,0,0,0,0,0,0,0,0,0,0,0,0,0,0,0,0,0,0,0,0,0,0,0,0,0,0,0,0,0,0],"id":7,"left_children":[1,3,5,7,9,-1,-1,11,13,15,17,19,21,23,-1,25,27,29,31,-1,33,35,-1,-1,-1,-1,-1,37,39,41,43,45,47,49,-1,51,53,-1,55,57,59,61,63,65,67,69,71,73,75,-1,-1,-1,-1,77,79,-1,81,83,-1,85,87,89,-1,-1,-1,-1,-1,91,93,95,-1,97,-1,-1,-1,-1,-1,-1,-1,-1,-1,-1,-1,-1,-1,-1,-1,-1,-1,-1,-1,-1,-1,-1,-1,-1,-1,-1,-1],"loss_changes":[1.10021515E1,1.1012588E1,8.2409954E-1,1.7778471E1,9.403259E0,0E0,0E0,5.6434803E0,6.3288145E0,9.063666E0,8.786549E0,5.9460125E0,6.659483E0,4.8238277E0,0E0,8.2409954E-1,6.656022E0,6.820015E0,8.062156E0,0E0,2.5705848E0,4.5406303E0,0E0,0E0,0E0,0E0,0E0,5.672089E0,1.0122337E1,8.611844E0,5.375906E0,9.809527E0,5.7664795E0,4.805714E0,0E0,1.0083523E0,7.1105833E0,0E0,4.8285713E0,3.7413998E0,6.7074738E0,5.888017E0,3.9629588E0,3.0970793E0,4.283306E0,4.365444E0,8.531219E0,4.2667027E0,2.078901E0,0E0,0E0,0E0,0E0,5.348731E0,6.087448E0,0E0,3.0641558E0,1.0331463E1,0E0,4.3229756E0,7.285223E-1,4.8238277E0,0E0,0E0,0E0,0E0,0E0,4.805714E0,9.254341E-1,8.892479E-1,0E0,1.0632406E1,0E0,0E0,0E0,0E0,0E0,0E0,0E0,0E0,0E0,0E0,0E0,0E0,0E0,0E0,0E0,0E0,0E0,0E0,0E0,0E0,0E0,0E0,0E0,0E0,0E0,0E0,0E0],"parents":[2147483647,0,0,1,1,2,2,3,3,4,4,7,7,8,8,9,9,10,10,11,11,12,12,13,13,15,15,16,16,17,17,18,18,20,20,21,21,27,27,28,28,29,29,30,30,31,31,32,32,33,33,35,35,36,36,38,38,39,39,40,40,41,41,42,42,43,43,44,44,45,45,46,46,47,47,48,48,53,53,54,54,56,56,57,57,59,59,60,60,61,61,67,67,68,68,69,69,71,71],"right_children":[2,4,6,8,10,-1,-1,12,14,16,18,20,22,24,-1,26,28,30,32,-1,34,36,-1,-1,-1,-1,-1,38,40,42,44,46,48,50,-1,52,54,-1,56,58,60,62,64,66,68,70,72,74,76,-1,-1,-1,-1,78,80,-1,82,84,-1,86,88,90,-1,-1,-1,-1,-1,92,94,96,-1,98,-1,-1,-1,-1,-1,-1,-1,-1,-1,-1,-1,-1,-1,-1,-1,-1,-1,-1,-1,-1,-1,-1,-1,-1,-1,-1,-1],"split_conditions":[9.715108E-1,3.6883232E-1,2.2762367E-1,6.423246E-2,1.9560622E-1,3.1188321E-3,3.313689E-3,-3.2991165E-1,8.431803E-2,-3.962145E-2,4.212983E-1,-1.8700298E-2,1.1116003E-1,2.822003E-1,-4.8682033E-3,4.1822302E-1,3.7358531E-3,1.7750812E-1,8.48317E-2,5.335886E-3,1.2352131E-1,2.5093138E-1,-7.4669034E-3,-1.3197847E-3,2.918564E-3,2.0150738E-4,1.7481577E-3,1.8659393E-1,4.7040048E-1,-1.3820924E-2,1.6893795E-1,3.3027995E-1,2.759924E-1,2.697623E-1,-5.60117E-3,3.0549288E-1,-7.014555E-2,-1.6071973E-3,8.8664874E-2,-1.9157105E-3,9.476319E-2,-2.5231952E-2,4.4466013E-1,3.5602078E-1,8.0813E-3,1.2499648E-1,3.9092487E-1,-4.485999E-2,6.5852195E-1,6.7839115E-3,-4.480735E-4,3.79102E-3,1.5084712E-3,3.060813E-1,1.887633E-1,2.4968635E-3,1.19330324E-1,1.5092207E-1,3.8837472E-3,2.596015E-1,6.637926E-3,6.1701364E-3,-2.129693E-3,1.9112971E-3,-5.710873E-4,-2.6280712E-3,1.4073824E-3,1.13064036E-1,6.5926823E-4,3.3624285E-1,-2.8974419E-3,4.9921226E-2,-5.5473302E-3,1.2277091E-3,-3.733761E-3,2.5048598E-3,-3.628285E-3,1.1605917E-3,-1.1045308E-3,3.0193587E-3,-3.15884E-3,-1.948816E-3,6.11458E-5,9.079231E-4,-1.3665941E-3,-1.502104E-3,3.0087554E-4,-7.1802926E-5,-3.231107E-3,-9.1113365E-4,1.930726E-3,2.0689084E-3,-8.769196E-3,-3.2708282E-4,-2.3803078E-3,3.4026318E-4,1.7713178E-3,-8.453377E-4,3.404022E-3],"split_indices":[32,5,0,93,49,0,0,103,37,127,31,137,112,117,0,4,1,19,133,0,8,3,0,0,0,0,0,44,27,100,34,49,133,3,0,16,95,0,12,100,22,110,11,29,136,93,21,93,4,0,0,0,0,6,129,0,14,49,0,34,1,1,0,0,0,0,0,95,1,6,0,102,0,0,0,0,0,0,0,0,0,0,0,0,0,0,0,0,0,0,0,0,0,0,0,0,0,0,0],"split_type":[0,0,0,0,0,0,0,0,0,0,0,0,0,0,0,0,0,0,0,0,0,0,0,0,0,0,0,0,0,0,0,0,0,0,0,0,0,0,0,0,0,0,0,0,0,0,0,0,0,0,0,0,0,0,0,0,0,0,0,0,0,0,0,0,0,0,0,0,0,0,0,0,0,0,0,0,0,0,0,0,0,0,0,0,0,0,0,0,0,0,0,0,0,0,0,0,0,0,0],"sum_hessian":[4.48E2,4.33E2,1.5E1,1.2E2,3.13E2,1.2E1,3E0,9.7E1,2.3E1,9.9E1,2.14E2,1.6E1,8.1E1,9E0,1.4E1,1.5E1,8.4E1,9.2E1,1.22E2,4E0,1.2E1,7.8E1,3E0,5E0,4E0,3E0,1.2E1,2.5E1,5.9E1,3.4E1,5.8E1,9.5E1,2.7E1,6E0,6E0,2.8E1,5E1,1.1E1,1.4E1,3E1,2.9E1,2.1E1,1.3E1,7E0,5.1E1,2.3E1,7.2E1,2.1E1,6E0,3E0,3E0,2.5E1,3E0,1.8E1,3.2E1,4E0,1E1,1.6E1,1.4E1,1.7E1,1.2E1,9E0,1.2E1,8E0,5E0,4E0,3E0,6E0,4.5E1,1.8E1,5E0,6.2E1,1E1,3E0,1.8E1,3E0,3E0,1E1,8E0,2.8E1,4E0,5E0,5E0,1.1E1,5E0,3E0,1.4E1,3E0,9E0,5E0,4E0,3E0,3E0,3E0,4.2E1,3E0,1.5E1,4.6E1,1.6E1],"tree_param":{"num_deleted":"0","num_feature":"172","num_nodes":"99","size_leaf_vector":"1"}},{"base_weights":[6.4230342E-3,3.1555053E-2,-4.7391307E-2,6.8155113E-3,7.032258E-1,6.4324325E-1,-2.184049E-2,4.7391307E-2,-0E0,-2.1111112E-2,4.7931034E-2,-1.6104513E-1,1.2607595E-1,5.025641E-2,-3.4273127E-1,1.613577E-1,-4.5384616E-2,-3.6338028E-1,2.864E-1,-0E0,-5.7629627E-1,6.1230767E-1,6.833856E-2,5.142857E-2,-7.5135136E-1,-1.3488372E-1,5.036145E-1,4.4E-1,-4.0408164E-1,-6.92562E-1,3.8666666E-1,7.826087E-2,8.7906975E-1,2.923077E-1,-1.1186441E-1,-3.4705885E-2,3.631579E-2,1.2857142E-2,-4.8064515E-2,2.1304348E-2,-3.761905E-2,-4.1428573E-2,3.103896E-2,-4.1428573E-2,3.3076923E-2,-2.9032258E-3,-4.6842106E-2,-0E0,-4.148515E-2,-1.2857142E-2,4.3333333E-2,4.4545453E-2,-3.0000001E-2,1.2857142E-2,4.837838E-2,-4.3333333E-2,1.8444445E-2,-1.3355705E-2,3.413793E-2],"categories":[],"categories_nodes":[],"categories_segments":[],"categories_sizes":[],"default_left":[0,0,0,0,0,0,0,0,0,0,0,0,0,0,0,0,0,0,0,0,0,0,0,0,0,0,0,0,0,0,0,0,0,0,0,0,0,0,0,0,0,0,0,0,0,0,0,0,0,0,0,0,0,0,0,0,0,0,0],"id":8,"left_children":[1,3,-1,5,7,9,11,-1,-1,-1,-1,13,15,17,19,21,-1,23,25,27,29,31,33,35,37,39,41,43,45,47,49,51,53,55,57,-1,-1,-1,-1,-1,-1,-1,-1,-1,-1,-1,-1,-1,-1,-1,-1,-1,-1,-1,-1,-1,-1,-1,-1],"loss_changes":[1.0751292E1,7.2463107E0,0E0,7.82921E0,2.6661434E0,6.472456E0,8.40434E0,0E0,0E0,0E0,0E0,8.119074E0,7.202046E0,9.567909E0,9.085678E0,7.9438605E0,0E0,5.8024635E0,5.790145E0,8.356408E0,7.721756E0,4.4999294E0,6.471798E0,9.060588E0,4.1108694E0,7.6404724E0,6.7139387E0,6.580703E0,4.3897448E0,5.7462063E0,2.4900954E0,6.6350203E0,9.3647003E-1,6.456103E0,1.0967424E1,0E0,0E0,0E0,0E0,0E0,0E0,0E0,0E0,0E0,0E0,0E0,0E0,0E0,0E0,0E0,0E0,0E0,0E0,0E0,0E0,0E0,0E0,0E0,0E0],"parents":[2147483647,0,0,1,1,3,3,4,4,5,5,6,6,11,11,12,12,13,13,14,14,15,15,17,17,18,18,19,19,20,20,21,21,22,22,23,23,24,24,25,25,26,26,27,27,28,28,29,29,30,30,31,31,32,32,33,33,34,34],"right_children":[2,4,-1,6,8,10,12,-1,-1,-1,-1,14,16,18,20,22,-1,24,26,28,30,32,34,36,38,40,42,44,46,48,50,52,54,56,58,-1,-1,-1,-1,-1,-1,-1,-1,-1,-1,-1,-1,-1,-1,-1,-1,-1,-1,-1,-1,-1,-1,-1,-1],"split_conditions":[2.4179696E-1,9.715108E-1,-4.3939296E-3,7.0123404E-2,1.6545532E-2,-2.263282E-1,1.9614741E-1,5.05374E-3,1.009759E-3,-4.048125E-3,4.3795053E-3,2.6844668E-1,5.5882835E-1,-1.8597338E-1,6.0596056E-3,-1.4377906E-2,-5.5910028E-3,3.0180192E-1,-2.431646E-2,1.5291719E-1,1.5209347E-1,-1.2468706E-1,4.1228965E-1,2E-1,2.3195106E-1,3.4783995E-1,6.5926823E-4,7.009366E-2,3.5457227E-1,-1.9187786E-1,1.9588315E-1,-1.7720142E-1,3.3836618E-1,1.0135014E-1,5.1985794E-1,-3.6450753E-3,3.1416663E-3,9.181248E-4,-4.1679987E-3,2.957629E-4,-6.2070834E-4,-1.2888071E-3,1.54866E-3,-1.7092476E-3,2.2002382E-3,-1.0130575E-3,-2.9489629E-3,-4.750834E-4,-1.6864634E-3,-1.410327E-4,6.364385E-3,3.7260614E-3,-2.3026995E-3,3.0515592E-3,2.155895E-3,-4.4320747E-3,6.8917574E-4,-5.1212416E-4,5.405693E-3],"split_indices":[107,30,0,0,1,90,20,0,0,0,0,46,43,131,51,86,0,30,134,18,16,93,5,30,3,3,1,2,6,130,3,93,4,43,5,0,0,0,0,0,0,0,0,0,0,0,0,0,0,0,0,0,0,0,0,0,0,0,0],"split_type":[0,0,0,0,0,0,0,0,0,0,0,0,0,0,0,0,0,0,0,0,0,0,0,0,0,0,0,0,0,0,0,0,0,0,0,0,0,0,0,0,0,0,0,0,0,0,0,0,0,0,0,0,0,0,0,0,0,0,0],"sum_hessian":[4.51E2,4.4E2,1.1E1,4.25E2,1.5E1,1.8E1,4.07E2,1.1E1,4E0,4E0,1.4E1,2.1E2,1.97E2,9.7E1,1.13E2,1.91E2,6E0,3.5E1,6.2E1,4.6E1,6.7E1,3.2E1,1.59E2,1.7E1,1.8E1,2.1E1,4.1E1,2.2E1,2.4E1,6E1,7E0,1.1E1,2.1E1,7.1E1,8.8E1,8E0,9E0,3E0,1.5E1,1.1E1,1E1,3E0,3.8E1,3E0,1.9E1,1.5E1,9E0,1E1,5E1,3E0,4E0,5E0,6E0,3E0,1.8E1,4E0,6.7E1,7.4E1,1.4E1],"tree_param":{"num_deleted":"0","num_feature":"172","num_nodes":"59","size_leaf_vector":"1"}},{"base_weights":[-4.8829433E-2,8.424242E-1,-8.300578E-2,4.777778E-2,1.2857142E-2,-1.1556092E-1,6.4324325E-1,-3.1304348E-3,-3.6784315E-1,4.76E-2,-0E0,6.563107E-2,-5.868853E-1,1.3488372E-1,-4.685446E-1,4.1428573E-2,-4.1428573E-2,-1.3333334E-2,4.91358E-1,4.1428573E-2,-7.6E-1,6.5925926E-1,-6.9411767E-1,-3.0331126E-1,-8.5396826E-1,1.184953E-1,-3.7435898E-1,6.106667E-1,-4.1428573E-2,-0E0,-4.8604652E-2,-0E0,4.6842106E-2,-1.2857142E-2,-4.4545453E-2,-6.982456E-1,-6.105263E-2,-9.0877193E-1,-1.2857142E-2,3.164021E-1,-1.6641222E-1,-6.269663E-1,4.0689656E-1,-1.2E-1,7.836065E-1,-4.1428573E-2,4.1428573E-2,-8.1960785E-1,1.2857142E-2,4.647059E-2,-2.7594936E-1,-4.882353E-2,-1.2857142E-2,2.0282486E-2,-4.5384616E-2,8.411215E-4,-4.76E-2,-3.691358E-2,2.1111112E-2,3.8695652E-2,-4.1428573E-2,4.1428573E-2,-4.3333333E-2,6E-3,4.8723407E-2,-1.4615386E-2,-4.8461538E-2,1.0740741E-2,-2.6226416E-2],"categories":[],"categories_nodes":[],"categories_segments":[],"categories_sizes":[],"default_left":[0,0,0,0,0,0,0,0,0,0,0,0,0,0,0,0,0,0,0,0,0,0,0,0,0,0,0,0,0,0,0,0,0,0,0,0,0,0,0,0,0,0,0,0,0,0,0,0,0,0,0,0,0,0,0,0,0,0,0,0,0,0,0,0,0,0,0,0,0],"id":9,"left_children":[1,3,5,-1,-1,7,9,11,13,-1,15,17,19,21,23,-1,-1,25,27,-1,29,31,33,35,37,39,41,43,-1,45,-1,-1,-1,-1,-1,47,49,51,-1,53,55,57,59,61,63,-1,-1,65,-1,-1,67,-1,-1,-1,-1,-1,-1,-1,-1,-1,-1,-1,-1,-1,-1,-1,-1,-1,-1],"loss_changes":[1.3620241E1,8.4839725E-1,1.0210054E1,0E0,0E0,1.1719294E1,3.6742058E0,1.1611594E1,6.5196934E0,0E0,4.805714E0,8.707526E0,7.7816114E0,9.571539E0,6.537199E0,0E0,0E0,1.0399356E1,6.6090984E0,0E0,4.432744E0,2.470487E0,5.015888E-1,7.126313E0,7.96875E-1,9.034756E0,1.1694588E1,4.8519306E0,0E0,4.805714E0,0E0,0E0,0E0,0E0,0E0,3.4661446E0,1.0173148E1,1.0083523E0,0E0,1.0457786E1,9.530047E0,5.384184E0,6.8899927E0,5.674857E0,3.6951199E0,0E0,0E0,1.7440395E0,0E0,0E0,4.9060583E0,0E0,0E0,0E0,0E0,0E0,0E0,0E0,0E0,0E0,0E0,0E0,0E0,0E0,0E0,0E0,0E0,0E0,0E0],"parents":[2147483647,0,0,1,1,2,2,5,5,6,6,7,7,8,8,10,10,11,11,12,12,13,13,14,14,17,17,18,18,20,20,21,21,22,22,23,23,24,24,25,25,26,26,27,27,29,29,35,35,36,36,37,37,39,39,40,40,41,41,42,42,43,43,44,44,47,47,50,50],"right_children":[2,4,6,-1,-1,8,10,12,14,-1,16,18,20,22,24,-1,-1,26,28,-1,30,32,34,36,38,40,42,44,-1,46,-1,-1,-1,-1,-1,48,50,52,-1,54,56,58,60,62,64,-1,-1,66,-1,-1,68,-1,-1,-1,-1,-1,-1,-1,-1,-1,-1,-1,-1,-1,-1,-1,-1,-1,-1],"split_conditions":[3.637173E-1,5.2431446E-1,9.715108E-1,3.5397583E-3,6.270941E-3,4.8197645E-1,1.6545532E-2,6.363945E-2,-1.3519249E-2,4.093535E-3,2.2220872E-1,1.6799434E-1,-8.775876E-1,7.235243E-1,7.022696E-1,3.0104753E-3,-3.7969311E-3,1.29493335E-2,7.3011744E-1,3.9656586E-3,5.3592056E-2,4.470602E-1,7.53349E-2,2.2259016E-2,2.4197996E-1,4.1511667E-1,3.5895208E-1,1.292017E-2,-5.0969934E-3,3.8819766E-1,-2.0969359E-3,3.144796E-4,4.3925955E-3,-3.5073757E-4,-1.3256824E-3,4.381138E-1,5.0007235E-2,6.732326E-1,-1.4600875E-4,2.922734E-2,1.2505849E-1,4.284948E-1,4.2989165E-1,9.163362E-2,-1.4254605E-2,-1.2243668E-3,4.1619777E-3,2.945701E-3,1.1919298E-3,4.2220466E-3,2.1396577E-2,-3.4146316E-3,-4.1742334E-3,1.2115048E-3,-3.0339172E-3,7.828698E-6,-2.4489088E-3,-2.0253754E-3,6.0461657E-3,3.555563E-3,-7.9060765E-3,1.6482932E-3,-2.7334318E-3,2.4235342E-5,5.328839E-3,-1.2605691E-4,-3.613066E-3,2.595501E-4,-3.3572242E-3],"split_indices":[25,3,30,0,0,27,1,106,104,0,38,18,117,49,28,0,0,107,48,0,39,4,10,113,23,5,36,42,0,4,0,0,0,0,0,3,101,117,0,113,14,3,36,86,88,0,0,1,0,0,121,0,0,0,0,0,0,0,0,0,0,0,0,0,0,0,0,0,0],"split_type":[0,0,0,0,0,0,0,0,0,0,0,0,0,0,0,0,0,0,0,0,0,0,0,0,0,0,0,0,0,0,0,0,0,0,0,0,0,0,0,0,0,0,0,0,0,0,0,0,0,0,0,0,0,0,0,0,0,0,0,0,0,0,0,0,0,0,0,0,0],"sum_hessian":[4.48E2,1.6E1,4.32E2,1.3E1,3E0,4.14E2,1.8E1,2.87E2,1.27E2,1.2E1,6E0,2.57E2,3E1,2.1E1,1.06E2,3E0,3E0,2.17E2,4E1,3E0,2.7E1,1.3E1,8E0,7.5E1,3.1E1,1.59E2,5.8E1,3.7E1,3E0,6E0,2.1E1,4E0,9E0,3E0,5E0,2.8E1,4.7E1,2.8E1,3E0,9.4E1,6.5E1,4.4E1,1.4E1,7E0,3E1,3E0,3E0,2.5E1,3E0,8E0,3.9E1,2.5E1,3E0,8.8E1,6E0,5.3E1,1.2E1,4E1,4E0,1.1E1,3E0,3E0,4E0,7E0,2.3E1,6E0,1.9E1,1.3E1,2.6E1],"tree_param":{"num_deleted":"0","num_feature":"172","num_nodes":"69","size_leaf_vector":"1"}},{"base_weights":[1.2812161E-2,-2.7901525E-2,5.1884055E-1,2.982036E-1,-1.0742358E-1,-4.1428573E-2,6.634921E-1,6.5773195E-1,-1.943662E-1,3.260274E-1,-1.5902439E-1,8.3859646E-1,-4.1428573E-2,-0E0,7.8765434E-1,3.1612903E-1,-5.804878E-1,5.5789477E-1,-4.5882353E-1,2.9885057E-2,-2.9802817E-1,8.181818E-3,4.8723407E-2,-4.3333333E-2,4.3333333E-2,9.223881E-1,1.2E-1,7.5238097E-1,-2.6363635E-2,-0E0,-4.76E-2,7.860465E-1,-1.2E-1,1.2857142E-2,-4.4545453E-2,-8.959276E-2,6.780488E-1,-4.8064515E-2,-2.3323077E-1,4.9016394E-2,1.2857142E-2,-4.1428573E-2,4.3333333E-2,4.6E-2,1.2857142E-2,4.1428573E-2,-2.6363635E-2,-0E0,4.8285715E-2,-4.3333333E-2,4.1428573E-2,1.03267975E-1,-5.1884055E-1,-0E0,4.7931034E-2,4.0689656E-1,-2.956229E-1,-5.245283E-1,4.3366337E-1,2.6363635E-2,-7.084746E-1,-4.1428573E-2,4.1428573E-2,7.73913E-1,-4.1428573E-2,-3.5053763E-1,5.1578945E-1,-0E0,-4.7931034E-2,4.837838E-2,6E-3,1.2857142E-2,-4.1320756E-2,4.647059E-2,1.2857142E-2,3.0000001E-2,-1.9812735E-2,4.5384616E-2,-1.2857142E-2],"categories":[],"categories_nodes":[],"categories_segments":[],"categories_sizes":[],"default_left":[0,0,0,0,0,0,0,0,0,0,0,0,0,0,0,0,0,0,0,0,0,0,0,0,0,0,0,0,0,0,0,0,0,0,0,0,0,0,0,0,0,0,0,0,0,0,0,0,0,0,0,0,0,0,0,0,0,0,0,0,0,0,0,0,0,0,0,0,0,0,0,0,0,0,0,0,0,0,0],"id":10,"left_children":[1,3,5,7,9,-1,11,13,15,17,19,21,-1,23,25,27,29,31,33,35,37,-1,-1,-1,-1,39,41,43,-1,45,-1,47,49,-1,-1,51,53,-1,55,-1,-1,-1,-1,-1,-1,-1,-1,-1,-1,-1,-1,57,59,61,-1,63,65,67,69,-1,71,-1,-1,73,-1,75,77,-1,-1,-1,-1,-1,-1,-1,-1,-1,-1,-1,-1],"loss_changes":[9.543683E0,1.1057172E1,6.9825954E0,1.4897507E1,7.692088E0,0E0,8.57833E0,4.1445236E0,7.1157107E0,6.780212E0,8.105949E0,2.4201317E0,0E0,6.76E0,3.4836178E0,5.923868E0,4.420995E0,4.521659E0,2.8074715E0,1.0195295E1,7.3969803E0,0E0,0E0,0E0,0E0,1.041441E0,5.674857E0,6.3561916E-1,0E0,3.931948E0,0E0,3.0363846E0,5.674857E0,0E0,0E0,9.216095E0,3.89995E0,0E0,6.539089E0,0E0,0E0,0E0,0E0,0E0,0E0,0E0,0E0,0E0,0E0,0E0,0E0,1.5972355E1,7.0489616E0,4.805714E0,0E0,6.8899927E0,6.690814E0,6.0338845E0,8.290233E0,0E0,3.5227995E0,0E0,0E0,6.859555E-1,0E0,6.1605816E0,3.059445E0,0E0,0E0,0E0,0E0,0E0,0E0,0E0,0E0,0E0,0E0,0E0,0E0],"parents":[2147483647,0,0,1,1,2,2,3,3,4,4,6,6,7,7,8,8,9,9,10,10,11,11,13,13,14,14,15,15,16,16,17,17,18,18,19,19,20,20,25,25,26,26,27,27,29,29,31,31,32,32,35,35,36,36,38,38,51,51,52,52,53,53,55,55,56,56,57,57,58,58,60,60,63,63,65,65,66,66],"right_children":[2,4,6,8,10,-1,12,14,16,18,20,22,-1,24,26,28,30,32,34,36,38,-1,-1,-1,-1,40,42,44,-1,46,-1,48,50,-1,-1,52,54,-1,56,-1,-1,-1,-1,-1,-1,-1,-1,-1,-1,-1,-1,58,60,62,-1,64,66,68,70,-1,72,-1,-1,74,-1,76,78,-1,-1,-1,-1,-1,-1,-1,-1,-1,-1,-1,-1],"split_conditions":[2.5E-1,-1.2858453E-1,-1.7538702E-2,2.6474595E-2,1.11950584E-1,-3.4324129E-3,3.2649514E-1,1.7862079E-1,-3.0997017E-1,-1.3905066E-3,-6.381742E-2,6.321327E-2,-3.4394802E-3,-2.3359105E-2,4.9789328E-2,3.5316613E-1,3.446164E-1,3.8813564E-1,3.7882787E-1,8.188337E-3,-1.9209348E-2,2.0558275E-4,2.4635487E-3,-1.121685E-3,1.2787598E-3,7.2256464E-1,-1.5720543E-3,8.155352E-2,-3.4304138E-3,-3.978989E-3,-3.0346836E-3,2.7441704E-1,9.521113E-2,9.4900763E-4,-2.1727493E-3,1.0040857E-1,1.7799318E-1,-9.690147E-4,2.5654435E-1,3.4186603E-3,1.0272991E-4,-3.8446204E-3,6.8468535E-3,3.7673756E-3,2.9240076E-3,8.8483415E-4,-5.3181667E-3,-1.8234756E-4,1.474078E-3,-1.6441006E-3,2.6029951E-3,2.6880112E-1,-5.203779E-2,3.6934897E-1,3.1123783E-3,2.7900118E-2,5.527295E-1,3.7809613E-1,3.2667136E-1,1.1383223E-3,1.9935367E-1,-4.360659E-3,1.094926E-3,3.845593E-1,-8.182685E-3,2.3582895E-1,1.1728185E-1,9.259389E-4,-3.1872466E-3,1.5685067E-3,5.7272444E-4,2.2047777E-4,-2.5235459E-3,3.4504072E-3,9.2460477E-4,3.9662486E-3,-1.5273456E-3,7.4891234E-3,-2.210023E-4],"split_indices":[142,107,113,136,49,0,114,35,119,94,129,84,0,96,103,84,5,3,5,87,88,0,0,0,0,28,137,2,0,137,0,35,0,0,0,114,43,0,42,0,0,0,0,0,0,0,0,0,0,0,0,46,92,6,0,51,115,28,3,0,49,0,0,6,0,17,14,0,0,0,0,0,0,0,0,0,0,0,0],"split_type":[0,0,0,0,0,0,0,0,0,0,0,0,0,0,0,0,0,0,0,0,0,0,0,0,0,0,0,0,0,0,0,0,0,0,0,0,0,0,0,0,0,0,0,0,0,0,0,0,0,0,0,0,0,0,0,0,0,0,0,0,0,0,0,0,0,0,0,0,0,0,0,0,0,0,0,0,0,0,0],"sum_hessian":[4.6E2,4.26E2,3.4E1,8.3E1,3.43E2,3E0,3.1E1,4.8E1,3.5E1,3.6E1,3.07E2,2.8E1,3E0,8E0,4E1,1.5E1,2E1,2.8E1,8E0,1.3E2,1.77E2,5E0,2.3E1,4E0,4E0,3.3E1,7E0,1E1,5E0,8E0,1.2E1,2.1E1,7E0,3E0,5E0,1.1E2,2E1,1.5E1,1.62E2,3E1,3E0,3E0,4E0,7E0,3E0,3E0,5E0,4E0,1.7E1,4E0,3E0,7.6E1,3.4E1,6E0,1.4E1,1.4E1,1.48E2,2.6E1,5E1,5E0,2.9E1,3E0,3E0,1.1E1,3E0,1.39E2,9E0,1.2E1,1.4E1,1.8E1,3.2E1,3E0,2.6E1,8E0,3E0,6E0,1.33E2,6E0,3E0],"tree_param":{"num_deleted":"0","num_feature":"172","num_nodes":"79","size_leaf_vector":"1"}},{"base_weights":[-3.9905548E-2,7.73913E-1,-6.2787876E-2,1.2857142E-2,4.647059E-2,2.4E-2,-2.621514E-1,-5.6734693E-1,7.931689E-2,-3.1452283E-1,4.4545453E-2,-0E0,-8.424242E-1,4.675835E-2,4.6842106E-2,-4.2009568E-1,3.5757574E-1,-2.6363635E-2,4.1428573E-2,-4.777778E-2,-1.2857142E-2,2.2409639E-1,-1.21839084E-1,-7.733333E-2,-6.059259E-1,7.73913E-1,-2.6363635E-2,5.314286E-1,-0E0,5.448276E-1,-2.0515022E-1,5.0857145E-1,-5.804878E-1,-7.4159294E-1,7.826087E-2,1.2857142E-2,4.647059E-2,8.264151E-1,2.2264151E-1,-1.2248062E-1,4.647059E-2,4.647059E-2,-0E0,-6E-1,-2.3602484E-2,-2.1111112E-2,8.074074E-1,-4.7931034E-2,2.923077E-1,-8.29703E-1,-0E0,4.4545453E-2,-6E-1,4.8723407E-2,-1.2857142E-2,3.2962963E-2,-1.0740741E-2,1.8679244E-2,-2.3246754E-2,1.2857142E-2,-1.2857142E-2,2.1111112E-2,-3.6769234E-2,-3.761905E-2,4.1843974E-3,1.2857142E-2,4.714286E-2,-1.2857142E-2,4.1428573E-2,-2.36E-2,-4.6623375E-2,1.2857142E-2,-1.2857142E-2,-4.1428573E-2,-1.2857142E-2],"categories":[],"categories_nodes":[],"categories_segments":[],"categories_sizes":[],"default_left":[0,0,0,0,0,0,0,0,0,0,0,0,0,0,0,0,0,0,0,0,0,0,0,0,0,0,0,0,0,0,0,0,0,0,0,0,0,0,0,0,0,0,0,0,0,0,0,0,0,0,0,0,0,0,0,0,0,0,0,0,0,0,0,0,0,0,0,0,0,0,0,0,0,0,0],"id":11,"left_children":[1,3,5,-1,-1,7,9,11,13,15,-1,17,19,21,-1,23,25,-1,-1,-1,-1,27,29,31,33,35,-1,37,39,41,43,45,47,49,51,-1,-1,53,55,57,-1,-1,59,61,63,-1,65,-1,67,69,71,-1,73,-1,-1,-1,-1,-1,-1,-1,-1,-1,-1,-1,-1,-1,-1,-1,-1,-1,-1,-1,-1,-1,-1],"loss_changes":[7.8396287E0,6.859555E-1,7.1641755E0,0E0,0E0,9.378246E0,7.661088E0,3.823575E0,7.2365956E0,8.631482E0,0E0,3.931948E0,8.4839725E-1,7.633106E0,0E0,6.564438E0,6.3072195E0,0E0,0E0,0E0,0E0,8.574568E0,7.269986E0,1.1209824E1,6.3608055E0,6.859555E-1,0E0,4.5852184E0,8.30995E0,3.0382152E0,8.281754E0,5.076677E0,6.972408E0,3.6918106E0,6.6350203E0,0E0,0E0,4.4482555E0,5.1767855E0,1.1053231E1,0E0,0E0,4.6285716E-1,5.237915E0,6.3927236E0,0E0,7.6497364E-1,0E0,2.078901E0,1.4958344E0,4.6285716E-1,0E0,2.9428577E-1,0E0,0E0,0E0,0E0,0E0,0E0,0E0,0E0,0E0,0E0,0E0,0E0,0E0,0E0,0E0,0E0,0E0,0E0,0E0,0E0,0E0,0E0],"parents":[2147483647,0,0,1,1,2,2,5,5,6,6,7,7,8,8,9,9,11,11,12,12,13,13,15,15,16,16,21,21,22,22,23,23,24,24,25,25,27,27,28,28,29,29,30,30,31,31,32,32,33,33,34,34,37,37,38,38,39,39,42,42,43,43,44,44,46,46,48,48,49,49,50,50,52,52],"right_children":[2,4,6,-1,-1,8,10,12,14,16,-1,18,20,22,-1,24,26,-1,-1,-1,-1,28,30,32,34,36,-1,38,40,42,44,46,48,50,52,-1,-1,54,56,58,-1,-1,60,62,64,-1,66,-1,68,70,72,-1,74,-1,-1,-1,-1,-1,-1,-1,-1,-1,-1,-1,-1,-1,-1,-1,-1,-1,-1,-1,-1,-1,-1],"split_conditions":[3.753737E-1,3.0927464E-1,6.544747E-2,3.1918373E-3,7.519293E-3,-3.299946E-1,7.5E-1,2.7199778E-1,1.640781E-1,4.9675682E-1,4.486102E-3,3.5132238E-1,3.5770583E-1,-1.18154785E-4,1.6695366E-3,1.2946687E-2,5.4545456E-1,-1.4332293E-3,4.5611835E-3,-4.0204073E-3,-5.532698E-4,-4.8745718E-2,-2.3192471E-1,3.3163834E-1,4.8397404E-1,2.3426421E-1,-3.5307172E-3,-7.3139365E-3,2.4573618E-1,3.321556E-1,7.6465155E-3,3.5215795E-2,3.9817536E-1,7.0225257E-1,1.7522414E-1,4.323743E-3,5.0982423E-3,2.6549725E-2,-8.029159E-3,4.2736575E-1,2.0928003E-3,1.0726497E-3,1.0908282E-1,2.3986515E-1,-4.5379284E-1,-1.1169004E-3,1.6945288E-1,-2.7687848E-3,2.702232E-1,1.774379E-1,1.8654087E-1,3.7985097E-3,1.3367128E-1,1.7207196E-3,-2.2453089E-4,1.0156941E-3,-1.2203198E-3,3.584548E-4,-1.0460545E-3,1.2859212E-3,-2.558586E-3,1.4404558E-3,-2.7942169E-3,-6.3271173E-3,8.4860905E-5,1.8932365E-3,2.0121068E-3,-1.1738046E-3,2.5634868E-3,-4.4997717E-4,-3.2862835E-3,2.9787207E-3,-2.0995215E-4,-3.7420557E-3,-4.173359E-4],"split_indices":[26,6,171,0,0,171,56,43,124,3,0,3,6,104,0,132,64,0,0,0,0,119,92,3,84,8,0,124,84,21,104,92,3,40,114,0,0,92,133,40,0,0,2,17,131,0,8,0,8,19,2,0,2,0,0,0,0,0,0,0,0,0,0,0,0,0,0,0,0,0,0,0,0,0,0],"split_type":[0,0,0,0,0,0,0,0,0,0,0,0,0,0,0,0,0,0,0,0,0,0,0,0,0,0,0,0,0,0,0,0,0,0,0,0,0,0,0,0,0,0,0,0,0,0,0,0,0,0,0,0,0,0,0,0,0,0,0,0,0,0,0,0,0,0,0,0,0,0,0,0,0,0,0],"sum_hessian":[4.23E2,1.1E1,4.12E2,3E0,8E0,2.87E2,1.25E2,2.4E1,2.63E2,1.2E2,5E0,8E0,1.6E1,2.54E2,9E0,1.04E2,1.6E1,5E0,3E0,1.3E1,3E0,1.24E2,1.3E2,3.7E1,6.7E1,1.1E1,5E0,5.2E1,7.2E1,1.4E1,1.16E2,1.7E1,2E1,5.6E1,1.1E1,3E0,8E0,2.6E1,2.6E1,6.4E1,8E0,8E0,6E0,3.6E1,8E1,4E0,1.3E1,1.4E1,6E0,5E1,6E0,5E0,6E0,2.3E1,3E0,1.3E1,1.3E1,2.6E1,3.8E1,3E0,3E0,4E0,3.2E1,1E1,7E1,3E0,1E1,3E0,3E0,1.2E1,3.8E1,3E0,3E0,3E0,3E0],"tree_param":{"num_deleted":"0","num_feature":"172","num_nodes":"75","size_leaf_vector":"1"}},{"base_weights":[3.5932202E-2,3.8015267E-1,-2.3576159E-2,5.695238E-1,-3.6296296E-1,-1.4089936E-1,1.6539793E-1,1.5918367E-1,9.0877193E-1,-7.263158E-1,2.1111112E-2,-1.9907193E-1,5.3513515E-1,2.7860263E-1,-2.590164E-1,4.647059E-2,-2.3636363E-1,1.2857142E-2,4.882353E-2,-4.5384616E-2,-1.2857142E-2,-6.4918034E-2,-5.181102E-1,8.206897E-1,-2.1111112E-2,-0E0,4.9457365E-1,6.533333E-1,-5.489362E-1,-4.6E-2,3.0526316E-1,-5.8431375E-1,3.8431372E-2,-1.7818181E-1,-7.6438355E-1,1.2857142E-2,4.7391307E-2,3.4603176E-1,-5.589744E-1,5.6747967E-1,-4.1428573E-2,1.2857142E-2,4.3333333E-2,-7.7560973E-1,4.1428573E-2,4.3333333E-2,-8.181818E-3,-0E0,-4.8064515E-2,4.0289855E-1,-9.5187165E-2,6.9411767E-1,-5.589744E-1,-2.521739E-1,-4.882353E-2,4.877193E-1,-4.1428573E-2,-8.3225805E-1,2.1111112E-2,6.897196E-1,-2.2352941E-1,-4.7931034E-2,-2.923077E-1,-6E-1,4.3333333E-2,-4.1428573E-2,5.3650796E-1,4.8292682E-1,-2.5714287E-1,4.4545453E-2,1.2857142E-2,-4.777778E-2,2.923077E-1,-6.533333E-1,2.1111112E-2,4.7931034E-2,-0E0,-1.2857142E-2,-4.76E-2,-1.2E-1,8.1505376E-1,-4.4545453E-2,4.1428573E-2,1.2857142E-2,-4.1428573E-2,-4.1428573E-2,-1.2857142E-2,3.436364E-2,-2.1111112E-2,3.6857143E-2,-4.1428573E-2,-1.8444445E-2,4.5384616E-2,4.1428573E-2,-1.2857142E-2,-4.3333333E-2,-1.2857142E-2,4.3333333E-2,-1.8571429E-2,4.1428573E-2,-4.3333333E-2,-1.2857142E-2,4.4712644E-2],"categories":[],"categories_nodes":[],"categories_segments":[],"categories_sizes":[],"default_left":[0,0,0,0,0,0,0,0,0,0,0,0,0,0,0,0,0,0,0,0,0,0,0,0,0,0,0,0,0,0,0,0,0,0,0,0,0,0,0,0,0,0,0,0,0,0,0,0,0,0,0,0,0,0,0,0,0,0,0,0,0,0,0,0,0,0,0,0,0,0,0,0,0,0,0,0,0,0,0,0,0,0,0,0,0,0,0,0,0,0,0,0,0,0,0,0,0,0,0,0,0,0,0],"id":12,"left_children":[1,3,5,7,9,11,13,15,17,19,-1,21,23,25,27,-1,29,-1,-1,-1,-1,31,33,35,-1,37,39,41,43,-1,45,47,49,51,53,-1,-1,55,57,59,-1,-1,-1,61,-1,-1,-1,63,-1,65,67,69,71,73,-1,75,-1,77,-1,79,81,-1,83,85,-1,-1,87,89,91,-1,-1,-1,93,95,-1,-1,97,-1,-1,99,101,-1,-1,-1,-1,-1,-1,-1,-1,-1,-1,-1,-1,-1,-1,-1,-1,-1,-1,-1,-1,-1,-1],"loss_changes":[9.104306E0,9.34148E0,8.378773E0,7.1292477E0,4.0352826E0,9.202435E0,6.9806423E0,7.6433544E0,1.0083523E0,5.752344E-1,0E0,9.148331E0,5.2705913E0,6.889476E0,8.236381E0,0E0,6.3114448E0,0E0,0E0,0E0,0E0,8.251899E0,5.1535645E0,7.9652596E-1,0E0,9.864566E0,6.430998E0,4.1009545E-1,7.653775E0,0E0,2.6420097E0,5.616951E0,6.259142E0,9.315023E0,3.71912E0,0E0,0E0,5.41041E0,5.445531E0,6.070318E0,0E0,0E0,0E0,1.5480175E0,0E0,0E0,0E0,5.7200003E0,0E0,5.86955E0,8.79381E0,5.015888E-1,6.7892313E0,3.272251E0,0E0,6.54553E0,0E0,8.2409954E-1,0E0,5.547886E0,6.3436055E0,0E0,2.078901E0,2.9428577E-1,0E0,0E0,4.7246933E0,7.131024E0,9.680718E0,0E0,0E0,0E0,2.078901E0,4.1009545E-1,0E0,0E0,4.8285713E0,0E0,0E0,5.674857E0,4.127325E0,0E0,0E0,0E0,0E0,0E0,0E0,0E0,0E0,0E0,0E0,0E0,0E0,0E0,0E0,0E0,0E0,0E0,0E0,0E0,0E0,0E0,0E0],"parents":[2147483647,0,0,1,1,2,2,3,3,4,4,5,5,6,6,7,7,8,8,9,9,11,11,12,12,13,13,14,14,16,16,21,21,22,22,23,23,25,25,26,26,27,27,28,28,30,30,31,31,32,32,33,33,34,34,37,37,38,38,39,39,43,43,47,47,49,49,50,50,51,51,52,52,53,53,55,55,57,57,59,59,60,60,62,62,63,63,66,66,67,67,68,68,72,72,73,73,76,76,79,79,80,80],"right_children":[2,4,6,8,10,12,14,16,18,20,-1,22,24,26,28,-1,30,-1,-1,-1,-1,32,34,36,-1,38,40,42,44,-1,46,48,50,52,54,-1,-1,56,58,60,-1,-1,-1,62,-1,-1,-1,64,-1,66,68,70,72,74,-1,76,-1,78,-1,80,82,-1,84,86,-1,-1,88,90,92,-1,-1,-1,94,96,-1,-1,98,-1,-1,100,102,-1,-1,-1,-1,-1,-1,-1,-1,-1,-1,-1,-1,-1,-1,-1,-1,-1,-1,-1,-1,-1,-1],"split_conditions":[1.6582707E-1,4.7291663E-1,1.982552E-1,2.5169924E-1,1.12140045E-1,6.5019536E-1,3.479853E-1,1.8298975E-1,6.641034E-2,8.173893E-2,2.6322517E-3,4.8208877E-1,8.937186E-1,4.6529746E-1,-1.9682273E-1,1.4281095E-3,2E-1,5.156773E-3,3.843962E-3,-1.3556301E-3,-2.3455422E-3,-1.5388673E-2,1.2899943E-1,1.0121137E-1,-3.5931559E-3,4.5751977E-1,8.07212E-1,8.875807E-2,5.2559966E-1,-1.1536004E-3,3.317922E-1,1.7207365E-1,-4.921499E-3,-4.016072E-2,-3.5103403E-2,7.737346E-4,8.442535E-3,1.5781317E-2,8E-1,8.48317E-2,-1.9611071E-3,3.174562E-5,4.0473617E-3,6.6052216E-1,5.0237863E-3,1.526361E-3,-3.7646831E-3,4.7677743E-1,-1.1291445E-3,-2.1540777E-1,1.3467893E-1,1.02026016E-1,1.6098322E-1,5.8259596E-3,-1.3254682E-3,1.0182973E-1,-3.2407201E-3,9.928677E-2,2.962744E-4,-4.2294037E-1,1.6378553E-1,-4.2192056E-3,6.5019536E-1,8.173893E-2,1.2539334E-3,-1.2522832E-3,6.6809006E-2,2.8321943E-1,1.6866016E-1,2.8581333E-3,1.495123E-4,-3.2084894E-3,4.5710212E-1,1.0347559E-1,1.2159932E-3,2.3251348E-3,2.756407E-1,-1.2549087E-4,-3.067931E-3,7.268588E-3,0E0,-3.3541813E-3,7.4550286E-3,7.2365734E-3,-7.701383E-3,-4.0641106E-3,-2.1330435E-4,1.3916673E-3,-1.3221874E-3,3.197134E-3,-1.8578178E-3,-1.3615679E-3,2.8325228E-3,5.8260346E-3,-5.3043605E-4,-1.653435E-3,-1.7539259E-3,2.3229646E-3,-8.1433356E-4,3.2647606E-3,-1.5429758E-3,-2.4306567E-3,4.1075554E-3],"split_indices":[19,28,20,33,83,4,84,29,2,0,0,27,83,31,97,0,149,0,0,0,0,96,24,0,0,11,46,0,3,0,84,19,96,103,134,0,0,113,63,133,0,0,0,33,0,0,0,29,0,135,31,2,170,87,0,41,0,0,0,131,41,0,4,0,0,0,99,15,122,0,0,0,4,0,0,0,28,0,0,124,145,0,0,0,0,0,0,0,0,0,0,0,0,0,0,0,0,0,0,0,0,0,0],"split_type":[0,0,0,0,0,0,0,0,0,0,0,0,0,0,0,0,0,0,0,0,0,0,0,0,0,0,0,0,0,0,0,0,0,0,0,0,0,0,0,0,0,0,0,0,0,0,0,0,0,0,0,0,0,0,0,0,0,0,0,0,0,0,0,0,0,0,0,0,0,0,0,0,0,0,0,0,0,0,0,0,0,0,0,0,0,0,0,0,0,0,0,0,0,0,0,0,0,0,0,0,0,0,0],"sum_hessian":[4.42E2,6.5E1,3.77E2,5.2E1,1.3E1,2.33E2,1.44E2,2.4E1,2.8E1,9E0,4E0,2.15E2,1.8E1,1.14E2,3E1,8E0,1.6E1,3E0,2.5E1,6E0,3E0,1.52E2,6.3E1,1.4E1,4E0,5E1,6.4E1,7E0,2.3E1,7E0,9E0,2.5E1,1.27E2,2.7E1,3.6E1,3E0,1.1E1,3.1E1,1.9E1,6.1E1,3E0,3E0,4E0,2E1,3E0,4E0,5E0,1E1,1.5E1,3.4E1,9.3E1,8E0,1.9E1,1.1E1,2.5E1,2.8E1,3E0,1.5E1,4E0,5.3E1,8E0,1.4E1,6E0,6E0,4E0,3E0,3.1E1,2E1,7.3E1,5E0,3E0,1.3E1,6E0,7E0,4E0,1.4E1,1.4E1,3E0,1.2E1,7E0,4.6E1,5E0,3E0,3E0,3E0,3E0,3E0,2.7E1,4E0,1.7E1,3E0,6.7E1,6E0,3E0,3E0,4E0,3E0,4E0,1E1,3E0,4E0,3E0,4.3E1],"tree_param":{"num_deleted":"0","num_feature":"172","num_nodes":"103","size_leaf_vector":"1"}},{"base_weights":[-5.5005755E-2,7.118644E-2,-2.5309736E-1,1.4334038E-1,-5.0508475E-1,-3.9770114E-1,2.2531645E-1,5.104E-1,1.0888252E-2,-7.1914893E-1,2.923077E-1,-4.5338646E-1,4.4545453E-2,4.7391307E-2,-6.666667E-2,8.191781E-1,7.1698114E-2,-8.745763E-2,5.418182E-1,-4.8285715E-2,-0E0,-1.2857142E-2,4.1428573E-2,4.3333333E-2,-5.012346E-1,-3.5384616E-1,5.1578945E-1,-1.2857142E-2,9.223881E-1,5.7419354E-1,-6E-1,4.8292682E-1,-1.7960784E-1,8.5142857E-1,-0E0,4.1428573E-2,-4.1428573E-2,-6E-1,-0E0,3.8666666E-1,-7.92E-1,4.5384616E-2,-1.2857142E-2,1.2857142E-2,4.9016394E-2,4.76E-2,-4.1428573E-2,1.2857142E-2,-4.647059E-2,-2.1111112E-2,7.2121215E-1,2.4444444E-1,-3.76E-1,4.7931034E-2,1.2857142E-2,-6E-1,4.3333333E-2,-0E0,-6.804469E-1,3.1612903E-1,-4.4545453E-2,-1.2857142E-2,4.3333333E-2,-1.2857142E-2,-4.6842106E-2,4.76E-2,-0E0,8.424242E-1,-1.5918367E-1,-4.4191617E-1,4.3333333E-2,-1.2857142E-2,-4.1428573E-2,4.4545453E-2,-6.533333E-1,1.2E-1,-7.5030303E-1,6.32E-1,-4.1428573E-2,1.2857142E-2,4.777778E-2,4.5384616E-2,-2.6756758E-2,-4.1929822E-2,-1.1621621E-2,-4.3333333E-2,-1.2857142E-2,-4.1428573E-2,4.3333333E-2,-0E0,-4.0457517E-2,-1.2857142E-2,4.6842106E-2],"categories":[],"categories_nodes":[],"categories_segments":[],"categories_sizes":[],"default_left":[0,0,0,0,0,0,0,0,0,0,0,0,0,0,0,0,0,0,0,0,0,0,0,0,0,0,0,0,0,0,0,0,0,0,0,0,0,0,0,0,0,0,0,0,0,0,0,0,0,0,0,0,0,0,0,0,0,0,0,0,0,0,0,0,0,0,0,0,0,0,0,0,0,0,0,0,0,0,0,0,0,0,0,0,0,0,0,0,0,0,0,0,0],"id":13,"left_children":[1,3,5,7,9,11,13,15,17,19,21,23,-1,-1,25,27,29,31,33,-1,35,-1,-1,-1,37,39,41,-1,43,45,47,49,51,53,55,-1,-1,57,59,61,63,-1,-1,-1,-1,-1,-1,-1,-1,-1,65,67,69,-1,-1,71,-1,73,75,77,-1,-1,-1,-1,-1,-1,-1,79,81,83,-1,-1,-1,-1,85,87,89,91,-1,-1,-1,-1,-1,-1,-1,-1,-1,-1,-1,-1,-1,-1,-1],"loss_changes":[1.0888663E1,1.10395775E1,1.1788129E1,1.1443208E1,5.183238E0,9.522453E0,8.452655E0,8.347893E0,9.180606E0,4.166954E0,2.078901E0,8.107496E0,0E0,0E0,4.842241E0,4.239794E0,9.114096E0,7.765792E0,4.6131945E0,0E0,4.805714E0,0E0,0E0,0E0,6.0148144E0,6.5205946E0,3.059445E0,0E0,1.041441E0,8.621334E0,3.4337816E0,4.6036706E0,1.06773815E1,8.699713E-1,5.7200003E0,0E0,0E0,4.8992195E0,5.914487E0,2.4900954E0,7.285223E-1,0E0,0E0,0E0,0E0,0E0,0E0,0E0,0E0,0E0,2.746376E0,9.910514E0,7.316306E0,0E0,0E0,2.9428577E-1,0E0,7.5667877E0,5.112541E0,5.8466244E0,0E0,0E0,0E0,0E0,0E0,0E0,0E0,8.4839725E-1,1.0032407E1,6.734131E0,0E0,0E0,0E0,0E0,4.1009545E-1,5.674857E0,3.6426468E0,3.5765228E0,0E0,0E0,0E0,0E0,0E0,0E0,0E0,0E0,0E0,0E0,0E0,0E0,0E0,0E0,0E0],"parents":[2147483647,0,0,1,1,2,2,3,3,4,4,5,5,6,6,7,7,8,8,9,9,10,10,11,11,14,14,15,15,16,16,17,17,18,18,20,20,24,24,25,25,26,26,28,28,29,29,30,30,31,31,32,32,33,33,34,34,37,37,38,38,39,39,40,40,50,50,51,51,52,52,55,55,57,57,58,58,59,59,67,67,68,68,69,69,74,74,75,75,76,76,77,77],"right_children":[2,4,6,8,10,12,14,16,18,20,22,24,-1,-1,26,28,30,32,34,-1,36,-1,-1,-1,38,40,42,-1,44,46,48,50,52,54,56,-1,-1,58,60,62,64,-1,-1,-1,-1,-1,-1,-1,-1,-1,66,68,70,-1,-1,72,-1,74,76,78,-1,-1,-1,-1,-1,-1,-1,80,82,84,-1,-1,-1,-1,86,88,90,92,-1,-1,-1,-1,-1,-1,-1,-1,-1,-1,-1,-1,-1,-1,-1],"split_conditions":[5.095647E-2,2.0746812E-1,2.0847376E-1,-4.7716023E-3,-8.083309E-2,9.6124053E-1,4.2826962E-1,4.2726025E-1,1.294307E-1,3.6258677E-1,5.2078958E-3,2.7163005E-1,1.8211947E-3,2.2907655E-3,1.2288027E-1,-1.2820189E-1,-1.17626786E-1,-2.332464E-3,6.1847395E-1,-3.0162241E-3,3.0608517E-1,-1.1213524E-3,1.9654483E-4,7.132557E-3,4.9245882E-1,4.2192604E-2,5.5538446E-1,-7.874556E-5,8.401679E-2,-5.7737837E-3,3.3871487E-1,3.940958E-1,3.6722335E-1,7.385904E-2,8.566327E-2,1.2204741E-2,-3.5791972E-3,2.0930253E-1,8.7393E-1,3.61326E-1,3.51854E-1,8.526429E-3,-1.653295E-4,4.586913E-3,7.361737E-4,2.313475E-3,-1.2412308E-3,6.635852E-3,-1.6934666E-3,-1.5320536E-4,5.1742826E-2,2.9483643E-1,1.1395304E-1,4.8162797E-3,2.96084E-3,1.4214875E-1,6.0932073E-3,1.02596715E-1,5.098018E-4,3.400357E-1,-2.6459135E-3,-1.9125304E-3,1.5480942E-3,-7.4438513E-3,-3.916538E-3,2.632347E-3,4.548691E-5,7.5014144E-2,-3.7444288E-1,4.427646E-1,4.2536072E-3,-9.93031E-4,-5.9929862E-5,2.278808E-3,1.5020944E-1,4.2230433E-1,1.4168456E-1,8.389987E-2,-3.9145467E-3,8.229647E-4,2.994993E-3,4.0333844E-3,-3.0114173E-3,-2.639249E-3,-2.0739551E-4,-4.2345864E-3,-2.4420282E-4,-2.6689507E-3,1.865064E-3,2.1430622E-3,-1.4069782E-3,-5.787924E-4,8.159625E-3],"split_indices":[135,114,20,102,135,32,13,5,130,114,1,13,0,0,94,127,135,104,29,0,84,0,0,0,5,114,4,0,14,86,35,4,5,1,99,0,0,29,31,6,3,0,0,0,0,0,0,0,0,0,97,84,96,0,0,0,0,2,1,91,0,0,0,0,0,0,0,0,94,11,0,0,0,0,0,13,20,2,0,0,0,0,0,0,0,0,0,0,0,0,0,0,0],"split_type":[0,0,0,0,0,0,0,0,0,0,0,0,0,0,0,0,0,0,0,0,0,0,0,0,0,0,0,0,0,0,0,0,0,0,0,0,0,0,0,0,0,0,0,0,0,0,0,0,0,0,0,0,0,0,0,0,0,0,0,0,0,0,0,0,0,0,0,0,0,0,0,0,0,0,0,0,0,0,0,0,0,0,0,0,0,0,0,0,0,0,0,0,0],"sum_hessian":[4.34E2,2.65E2,1.69E2,2.36E2,2.9E1,1.3E2,3.9E1,6.2E1,1.74E2,2.3E1,6E0,1.25E2,5E0,1.1E1,2.8E1,3.6E1,2.6E1,1.47E2,2.7E1,1.7E1,6E0,3E0,3E0,4E0,1.21E2,1.9E1,9E0,3E0,3.3E1,1.5E1,1.1E1,2E1,1.27E2,1.7E1,1E1,3E0,3E0,1.01E2,2E1,7E0,1.2E1,6E0,3E0,3E0,3E1,1.2E1,3E0,3E0,8E0,4E0,1.6E1,4E1,8.7E1,1.4E1,3E0,6E0,4E0,1.2E1,8.9E1,1.5E1,5E0,3E0,4E0,3E0,9E0,1.2E1,4E0,1.6E1,2.4E1,8.3E1,4E0,3E0,3E0,5E0,7E0,7E0,8.2E1,1.2E1,3E0,3E0,1.3E1,6E0,1.8E1,2.8E1,5.5E1,4E0,3E0,3E0,4E0,6E0,7.6E1,3E0,9E0],"tree_param":{"num_deleted":"0","num_feature":"172","num_nodes":"93","size_leaf_vector":"1"}},{"base_weights":[6.7207417E-3,-3.4194343E-2,6.627451E-1,4.6842106E-2,-5.7610065E-2,4.837838E-2,-1.2E-1,8.091603E-2,-1.9305211E-1,2.1111112E-2,-4.1428573E-2,-7.032258E-1,1.4820936E-1,-5.223301E-1,-7.906977E-2,1.2857142E-2,-4.76E-2,5.139785E-1,2.1402214E-2,-6.643678E-1,2.2352941E-1,4.638298E-1,-1.7960784E-1,6.564706E-1,-4.3333333E-2,-1.8742138E-1,3.1681415E-1,-0E0,-8.1408453E-1,4.3333333E-2,-2.1111112E-2,8.424242E-1,-3.8666666E-1,-7.5135136E-1,-8.127854E-2,2.3636363E-1,9.018868E-1,1.7468354E-1,-5.407407E-1,4.6262625E-1,-6.533333E-1,4.1428573E-2,-2.6363635E-2,-9.2E-1,1.2857142E-2,4.777778E-2,1.2857142E-2,-4.3333333E-2,1.2857142E-2,1.2857142E-2,-4.8064515E-2,4.7878787E-1,-1.8074866E-1,2.5555557E-2,-4.1428573E-2,4.8723407E-2,1.2857142E-2,2.1384615E-2,-4.6E-2,-3.952381E-2,1.5263158E-2,3.877551E-3,4.0980395E-2,-1.2857142E-2,-4.3333333E-2,-1.2857142E-2,-4.898305E-2,4.76E-2,-4.3333333E-2,-1.484472E-2,2.5555557E-2],"categories":[],"categories_nodes":[],"categories_segments":[],"categories_sizes":[],"default_left":[0,0,0,0,0,0,0,0,0,0,0,0,0,0,0,0,0,0,0,0,0,0,0,0,0,0,0,0,0,0,0,0,0,0,0,0,0,0,0,0,0,0,0,0,0,0,0,0,0,0,0,0,0,0,0,0,0,0,0,0,0,0,0,0,0,0,0,0,0,0,0],"id":14,"left_children":[1,3,5,-1,7,-1,9,11,13,-1,-1,15,17,19,21,-1,-1,23,25,27,29,31,33,35,-1,37,39,41,43,-1,-1,45,47,49,51,53,55,57,59,61,63,-1,-1,65,-1,-1,-1,-1,-1,-1,-1,67,69,-1,-1,-1,-1,-1,-1,-1,-1,-1,-1,-1,-1,-1,-1,-1,-1,-1,-1],"loss_changes":[1.1656203E1,9.181863E0,6.227068E0,0E0,7.477021E0,0E0,3.0970793E0,1.0365428E1,7.4818826E0,0E0,0E0,3.8950672E0,8.359321E0,5.574256E0,8.227834E0,0E0,0E0,9.411444E0,8.401485E0,4.3268127E0,3.7575164E0,7.775286E0,7.0541434E0,4.1613846E0,0E0,1.025496E1,8.1245E0,3.931948E0,4.212385E0,0E0,0E0,8.4839725E-1,2.4900954E0,4.1108694E0,6.113697E0,5.007705E0,9.916496E-1,1.1087606E1,8.725899E0,6.68301E0,4.1009545E-1,0E0,0E0,1.0356331E0,0E0,0E0,0E0,0E0,0E0,0E0,0E0,1.0926376E1,7.567791E0,0E0,0E0,0E0,0E0,0E0,0E0,0E0,0E0,0E0,0E0,0E0,0E0,0E0,0E0,0E0,0E0,0E0,0E0],"parents":[2147483647,0,0,1,1,2,2,4,4,6,6,7,7,8,8,11,11,12,12,13,13,14,14,17,17,18,18,19,19,20,20,21,21,22,22,23,23,25,25,26,26,27,27,28,28,31,31,32,32,33,33,34,34,35,35,36,36,37,37,38,38,39,39,40,40,43,43,51,51,52,52],"right_children":[2,4,6,-1,8,-1,10,12,14,-1,-1,16,18,20,22,-1,-1,24,26,28,30,32,34,36,-1,38,40,42,44,-1,-1,46,48,50,52,54,56,58,60,62,64,-1,-1,66,-1,-1,-1,-1,-1,-1,-1,68,70,-1,-1,-1,-1,-1,-1,-1,-1,-1,-1,-1,-1,-1,-1,-1,-1,-1,-1],"split_conditions":[5.538705E-1,8.190196E-2,5.0804627E-1,5.0369836E-3,7.2778505E-3,3.253782E-3,2.6459513E-2,-4.6220446E-1,2.0556024E-3,1.9479411E-3,-5.6933426E-5,2.548814E-1,2.7830723E-1,4.381138E-1,2.9765513E-2,1.6148867E-3,-3.1719767E-3,3.7497792E-2,-7.849185E-2,-7.984945E-3,4.9934995E-1,1.025699E-1,1.14463754E-1,-7.6505668E-3,-2.3408786E-3,3.5847828E-1,1.1369536E-1,3.3485925E-1,3.950566E-2,2.1960826E-3,-3.4677417E-3,5.8396943E-3,2.7625084E-1,6.53513E-2,4.814123E-2,5.03462E-1,2.2897452E-2,2.9185343E-1,1.6403687E-1,3.7246594E-1,4.5268135E-3,1.7433407E-3,-6.9338386E-4,2.7154058E-1,7.8999106E-4,1.8820362E-3,1.6536355E-3,-2.1480687E-3,4.52963E-3,3.7346035E-5,-1.3892972E-3,5.592122E-2,5.042146E-1,2.1648675E-3,-2.7292836E-4,1.2852753E-3,1.5161468E-3,8.2922634E-4,-5.3652828E-3,-2.069836E-3,1.5017231E-3,1.5938096E-5,1.8849866E-3,-2.2748297E-3,-6.717771E-3,-1.462549E-6,-2.936755E-3,1.7632574E-3,-1.5373196E-3,-6.04711E-4,3.9046449E-3],"split_indices":[50,23,85,0,92,0,136,131,119,0,0,35,42,3,83,0,0,91,92,102,5,67,24,137,0,5,170,6,51,0,0,1,7,22,119,25,1,7,18,42,1,0,0,28,0,0,0,0,0,0,0,128,3,0,0,0,0,0,0,0,0,0,0,0,0,0,0,0,0,0,0],"split_type":[0,0,0,0,0,0,0,0,0,0,0,0,0,0,0,0,0,0,0,0,0,0,0,0,0,0,0,0,0,0,0,0,0,0,0,0,0,0,0,0,0,0,0,0,0,0,0,0,0,0,0,0,0,0,0,0,0,0,0,0,0,0,0,0,0,0,0,0,0,0,0],"sum_hessian":[4.31E2,4.06E2,2.5E1,9E0,3.97E2,1.8E1,7E0,1.96E2,2.01E2,4E0,3E0,1.5E1,1.81E2,5.1E1,1.5E2,3E0,1.2E1,4.6E1,1.35E2,4.3E1,8E0,2.3E1,1.27E2,4.2E1,4E0,7.9E1,5.6E1,8E0,3.5E1,4E0,4E0,1.6E1,7E0,1.8E1,1.09E2,1.6E1,2.6E1,3.9E1,4E1,4.9E1,7E0,3E0,5E0,3.2E1,3E0,1.3E1,3E0,4E0,3E0,3E0,1.5E1,1.6E1,9.3E1,1.3E1,3E0,2.3E1,3E0,3.2E1,7E0,3.1E1,9E0,2.4E1,2.5E1,3E0,4E0,3E0,2.9E1,1.2E1,4E0,8E1,1.3E1],"tree_param":{"num_deleted":"0","num_feature":"172","num_nodes":"71","size_leaf_vector":"1"}},{"base_weights":[-4.2937854E-3,1.113438E-1,-2.1661341E-1,1.432675E-1,-4.647059E-2,3.4901962E-1,-3.2623574E-1,3.231746E-1,-8.9711934E-2,7.2121215E-1,-3.0526316E-1,-3.9751038E-1,4.2608696E-1,4.063158E-1,-4.4516128E-1,-1.8341014E-1,6.5925926E-1,4.777778E-2,-1.2857142E-2,4.1428573E-2,-4.5384616E-2,8.444444E-2,-5.06599E-1,4.647059E-2,-4.1428573E-2,-3.529412E-2,5.012766E-1,-4.647059E-2,1.2E-1,6.9411767E-1,-2.5771144E-1,-1.2857142E-2,4.714286E-2,4.7878787E-1,-4.5384616E-2,2.2352941E-1,-5.7348067E-1,2.5128204E-1,-4.5384616E-2,5.960199E-1,-5.142857E-2,4.3333333E-2,-4.1428573E-2,4.4545453E-2,1.2857142E-2,-1.1483871E-1,-7.1914893E-1,-2.6363635E-2,4.7391307E-2,4.4545453E-2,-4.1428573E-2,-9.246377E-1,-3.522124E-1,-2.521739E-1,4.647059E-2,3.7904763E-1,8.226804E-1,4.5882353E-1,-5.1578945E-1,-1.9172414E-1,4.4545453E-2,1.2857142E-2,-8.7317073E-1,-4.904762E-2,-1.2857142E-2,1.6571428E-1,-5.7974684E-1,4.1428573E-2,-3.4705885E-2,2.9506175E-2,-1.56000005E-2,4.9178082E-2,1.56000005E-2,4.4545453E-2,-1.2857142E-2,-4.5384616E-2,1.2857142E-2,-0E0,-3.7567567E-2,-4.8285715E-2,-1.2857142E-2,4.5384616E-2,-1.2608695E-2,-3.7164178E-2,1.4615386E-2],"categories":[],"categories_nodes":[],"categories_segments":[],"categories_sizes":[],"default_left":[0,0,0,0,0,0,0,0,0,0,0,0,0,0,0,0,0,0,0,0,0,0,0,0,0,0,0,0,0,0,0,0,0,0,0,0,0,0,0,0,0,0,0,0,0,0,0,0,0,0,0,0,0,0,0,0,0,0,0,0,0,0,0,0,0,0,0,0,0,0,0,0,0,0,0,0,0,0,0,0,0,0,0,0,0],"id":15,"left_children":[1,3,5,7,-1,9,11,13,15,17,19,21,23,25,27,29,31,-1,-1,-1,-1,33,35,-1,-1,37,39,-1,41,43,45,-1,-1,47,-1,49,51,53,-1,55,57,-1,-1,-1,-1,59,61,-1,-1,-1,-1,63,65,67,-1,69,71,73,75,77,-1,-1,79,-1,-1,81,83,-1,-1,-1,-1,-1,-1,-1,-1,-1,-1,-1,-1,-1,-1,-1,-1,-1,-1],"loss_changes":[1.0886904E1,9.506859E0,9.758593E0,1.1711073E1,0E0,6.361413E0,7.1330585E0,1.0147711E1,8.539409E0,3.9756708E0,6.8729787E0,6.398987E0,7.657384E0,6.031271E0,4.37874E0,7.1201596E0,3.6983066E0,0E0,0E0,0E0,0E0,8.977365E0,4.9090633E0,0E0,0E0,6.5549026E0,6.2226887E0,0E0,5.674857E0,5.015888E-1,6.5009537E0,0E0,0E0,8.077971E0,0E0,6.3436055E0,6.7413197E0,6.842375E0,0E0,4.6664047E0,4.2704945E0,0E0,0E0,0E0,0E0,6.008356E0,3.7075682E0,0E0,0E0,0E0,0E0,1.046915E0,6.7477474E0,5.7668476E0,0E0,7.7777033E0,3.7017174E0,2.8074715E0,3.059445E0,7.778818E0,0E0,0E0,9.2224216E-1,0E0,0E0,5.6061177E0,5.7869425E0,0E0,0E0,0E0,0E0,0E0,0E0,0E0,0E0,0E0,0E0,0E0,0E0,0E0,0E0,0E0,0E0,0E0,0E0],"parents":[2147483647,0,0,1,1,2,2,3,3,5,5,6,6,7,7,8,8,9,9,10,10,11,11,12,12,13,13,14,14,15,15,16,16,21,21,22,22,25,25,26,26,28,28,29,29,30,30,33,33,35,35,36,36,37,37,39,39,40,40,45,45,46,46,51,51,52,52,53,53,55,55,56,56,57,57,58,58,59,59,62,62,65,65,66,66],"right_children":[2,4,6,8,-1,10,12,14,16,18,20,22,24,26,28,30,32,-1,-1,-1,-1,34,36,-1,-1,38,40,-1,42,44,46,-1,-1,48,-1,50,52,54,-1,56,58,-1,-1,-1,-1,60,62,-1,-1,-1,-1,64,66,68,-1,70,72,74,76,78,-1,-1,80,-1,-1,82,84,-1,-1,-1,-1,-1,-1,-1,-1,-1,-1,-1,-1,-1,-1,-1,-1,-1,-1],"split_conditions":[4.781811E-2,3.596631E-1,-1.2831123E-1,3.73502E-2,-2.0861037E-3,1.1219291E-1,4.57075E-1,2.0955606E-1,6.194137E-1,1.8307044E-1,2.9813442E-1,2.8985883E-3,8.987769E-2,0E0,4.8252758E-1,2.451572E-1,-6.156318E-2,6.720124E-4,-3.8351992E-3,7.939897E-3,-4.211925E-5,2.1839081E-1,-7.2116232E-3,3.939398E-3,-7.090351E-3,4.2195526E-1,9.397717E-2,-1.7369327E-3,4.875639E-1,1.3053322E-1,1.9866077E-2,-6.074908E-4,4.5289206E-3,1.6052391E-2,-5.5008144E-3,1.8011077E-1,-1.5648592E-2,3.1342095E-1,-1.947307E-3,2.5772562E-3,-4.581723E-1,2.5381006E-3,-3.748852E-3,6.67566E-3,5.157264E-3,2.306149E-1,-9.561187E-2,-1.1548813E-3,3.4010287E-3,1.4747452E-3,-7.2118995E-4,3.0846642E-2,-7.369096E-2,3.368725E-1,4.1831145E-4,2.64466E-3,1.2755641E-1,6.637926E-3,3.610087E-1,1.688327E-2,6.6597224E-3,3.6548264E-3,2.1446414E-2,-1.7796183E-3,-3.3898538E-3,3.9163426E-2,1E0,2.9052235E-4,-5.037162E-4,1.5668245E-3,-5.55168E-4,1.3465986E-3,6.8740686E-4,3.3361323E-3,-4.3648083E-4,-3.4399726E-3,2.099639E-5,4.7370606E-5,-1.6044661E-3,-4.928364E-3,-1.070883E-3,1.7436118E-3,-1.2682751E-4,-1.8841729E-3,3.1341973E-3],"split_indices":[171,7,107,127,0,0,119,117,31,89,84,51,107,142,27,4,89,0,0,0,0,114,132,0,0,30,104,0,27,0,103,0,0,88,0,119,89,15,0,133,171,0,0,0,0,132,113,0,0,0,0,1,127,85,0,113,135,1,33,51,0,0,1,0,0,114,59,0,0,0,0,0,0,0,0,0,0,0,0,0,0,0,0,0,0],"split_type":[0,0,0,0,0,0,0,0,0,0,0,0,0,0,0,0,0,0,0,0,0,0,0,0,0,0,0,0,0,0,0,0,0,0,0,0,0,0,0,0,0,0,0,0,0,0,0,0,0,0,0,0,0,0,0,0,0,0,0,0,0,0,0,0,0,0,0,0,0,0,0,0,0,0,0,0,0,0,0,0,0,0,0,0,0],"sum_hessian":[4.42E2,2.86E2,1.56E2,2.78E2,8E0,2.5E1,1.31E2,1.57E2,1.21E2,1.6E1,9E0,1.2E2,1.1E1,1.42E2,1.5E1,1.08E2,1.3E1,1.3E1,3E0,3E0,6E0,2.2E1,9.8E1,8E0,3E0,2.5E1,1.17E2,8E0,7E0,8E0,1E2,3E0,1E1,1.6E1,6E0,8E0,9E1,1.9E1,6E0,1E2,1.7E1,4E0,3E0,5E0,3E0,7.7E1,2.3E1,5E0,1.1E1,5E0,3E0,3.4E1,5.6E1,1.1E1,8E0,5.2E1,4.8E1,8E0,9E0,7.2E1,5E0,3E0,2E1,3.1E1,3E0,1.7E1,3.9E1,3E0,8E0,4E1,1.2E1,3.6E1,1.2E1,5E0,3E0,6E0,3E0,5.4E1,1.8E1,1.7E1,3E0,6E0,1.1E1,3.3E1,6E0],"tree_param":{"num_deleted":"0","num_feature":"172","num_nodes":"85","size_leaf_vector":"1"}},{"base_weights":[2.1215733E-2,4.6262625E-1,-3.751687E-2,-5.8064517E-2,6.927536E-1,2.976378E-1,-1.0699187E-1,4.6E-2,-4.647059E-2,1.52E-1,4.8666667E-2,4.385321E-1,-5.1578945E-1,-2.2386634E-1,1.4111675E-1,4.5384616E-2,-6E-1,6.3950616E-1,-1.3103448E-1,-4.5384616E-2,1.2857142E-2,-7.2698414E-1,-1.3389356E-1,2.6545453E-1,-4.7878787E-1,-1.2857142E-2,-4.1428573E-2,-2.6363635E-2,8.1408453E-1,4.5384616E-2,-4.647059E-2,-4.8867926E-2,2.6363635E-2,-1.7333333E-1,4.5384616E-2,-3.2093024E-1,4.699187E-1,-7.92E-1,2.1111112E-2,-1.2857142E-2,9.2E-1,9.0452265E-3,-4.2040816E-1,4.1428573E-2,-5.3513515E-1,5.646018E-1,-2.6363635E-2,-4.6842106E-2,-1.2857142E-2,4.898305E-2,1.2857142E-2,4.647059E-2,-7.540984E-2,-7.445783E-1,-0E0,-8.3225805E-1,4.1428573E-2,7.168539E-1,-0E0,2.0204082E-2,-1.251852E-2,4.736842E-3,-4.9076926E-2,-2.135135E-2,2.7241379E-2,-1.2857142E-2,-4.76E-2,-1.2857142E-2,3.9638557E-2,4.4545453E-2,-3.2666665E-2],"categories":[],"categories_nodes":[],"categories_segments":[],"categories_sizes":[],"default_left":[0,0,0,0,0,0,0,0,0,0,0,0,0,0,0,0,0,0,0,0,0,0,0,0,0,0,0,0,0,0,0,0,0,0,0,0,0,0,0,0,0,0,0,0,0,0,0,0,0,0,0,0,0,0,0,0,0,0,0,0,0,0,0,0,0,0,0,0,0,0,0],"id":16,"left_children":[1,3,5,7,9,11,13,-1,-1,15,-1,17,19,21,23,-1,25,27,29,-1,-1,31,33,35,37,-1,-1,-1,39,-1,-1,-1,-1,41,-1,43,45,47,-1,-1,49,51,53,-1,55,57,-1,-1,-1,-1,-1,-1,59,61,63,65,-1,67,69,-1,-1,-1,-1,-1,-1,-1,-1,-1,-1,-1,-1],"loss_changes":[1.09268055E1,6.014929E0,8.623902E0,1.3638095E1,5.047987E0,7.382932E0,8.940823E0,0E0,0E0,7.4065847E0,0E0,6.331258E0,3.059445E0,9.3486595E0,7.6343555E0,0E0,2.9428577E-1,8.492924E0,1.2448772E1,0E0,0E0,1.019474E1,7.3379955E0,9.981615E0,4.8605986E0,0E0,0E0,0E0,4.212385E0,0E0,0E0,0E0,0E0,7.816086E0,0E0,5.4862766E0,5.959236E0,7.285223E-1,0E0,0E0,1.0356331E0,7.8545403E0,1.0016857E1,0E0,7.841148E0,4.856844E0,0E0,0E0,0E0,0E0,0E0,0E0,7.7113385E0,8.38887E0,7.6776514E0,8.2409954E-1,0E0,3.4459572E0,7.5667877E0,0E0,0E0,0E0,0E0,0E0,0E0,0E0,0E0,0E0,0E0,0E0,0E0],"parents":[2147483647,0,0,1,1,2,2,3,3,4,4,5,5,6,6,9,9,11,11,12,12,13,13,14,14,16,16,17,17,18,18,21,21,22,22,23,23,24,24,28,28,33,33,35,35,36,36,37,37,40,40,41,41,42,42,44,44,45,45,52,52,53,53,54,54,55,55,57,57,58,58],"right_children":[2,4,6,8,10,12,14,-1,-1,16,-1,18,20,22,24,-1,26,28,30,-1,-1,32,34,36,38,-1,-1,-1,40,-1,-1,-1,-1,42,-1,44,46,48,-1,-1,50,52,54,-1,56,58,-1,-1,-1,-1,-1,-1,60,62,64,66,-1,68,70,-1,-1,-1,-1,-1,-1,-1,-1,-1,-1,-1,-1],"split_conditions":[1.1386275E-1,2.608696E-1,2.6826367E-1,1.8298975E-1,8.7265894E-2,8E-1,1.25E-1,3.0660674E-3,-2.139837E-3,3.5351327E-1,1.3915299E-3,5.782619E-1,1.8398054E-1,-1.4166857E-1,7.2141844E-1,9.641897E-4,8.730895E-2,-3.423614E-1,-1.4717657E-3,-2.6790125E-3,3.853282E-5,1.0903642E-1,9.715108E-1,2.2702329E-1,7.052344E-2,-4.7800317E-5,-2.0166857E-3,-2.5327746E-3,-6.3375044E-3,2.4971988E-3,-3.2389627E-3,-2.4818853E-3,3.0959107E-3,3.6537033E-1,1.8604506E-3,-2.6713023E-2,8.933473E-1,2.1154758E-1,3.8890135E-3,-5.958684E-4,4.4662532E-1,-2.4933636E-2,4.284948E-1,1.5888438E-3,1.7438243E-1,5.0817007E-1,-2.553049E-3,-3.0154842E-3,-5.334554E-3,2.7136498E-3,1.811507E-3,1.1358316E-3,5E-1,-1.6571078E-1,1.6340671E-1,7.0825316E-2,8.692905E-3,-3.9995557E-1,-1.2888165E-1,1.2954125E-4,-1.0072908E-3,1.285579E-4,-1.948908E-3,-9.631968E-4,2.409542E-3,-1.6610911E-4,-1.4482355E-3,-4.7061752E-4,2.7950802E-3,1.401008E-3,-3.6434394E-3],"split_indices":[49,29,15,29,84,63,148,0,0,3,0,42,39,95,28,0,0,89,153,0,0,123,30,8,128,0,0,0,106,0,0,0,0,3,0,109,35,0,0,0,13,110,3,0,122,42,0,0,0,0,0,0,62,126,18,0,0,128,116,0,0,0,0,0,0,0,0,0,0,0,0],"split_type":[0,0,0,0,0,0,0,0,0,0,0,0,0,0,0,0,0,0,0,0,0,0,0,0,0,0,0,0,0,0,0,0,0,0,0,0,0,0,0,0,0,0,0,0,0,0,0,0,0,0,0,0,0,0,0,0,0,0,0,0,0,0,0,0,0,0,0,0,0,0,0],"sum_hessian":[4.19E2,4.9E1,3.7E2,1.5E1,3.4E1,6.3E1,3.07E2,7E0,8E0,1.2E1,2.2E1,5.4E1,9E0,2.09E2,9.8E1,6E0,6E0,4E1,1.4E1,6E0,3E0,3.1E1,1.78E2,8.2E1,1.6E1,3E0,3E0,5E0,3.5E1,6E0,8E0,2.6E1,5E0,1.72E2,6E0,2.1E1,6.1E1,1.2E1,4E0,3E0,3.2E1,9.9E1,7.3E1,3E0,1.8E1,5.6E1,5E0,9E0,3E0,2.9E1,3E0,8E0,9.1E1,4.1E1,3.2E1,1.5E1,3E0,4.4E1,1.2E1,2.4E1,6.7E1,9E0,3.2E1,1.8E1,1.4E1,3E0,1.2E1,3E0,4.1E1,5E0,7E0],"tree_param":{"num_deleted":"0","num_feature":"172","num_nodes":"71","size_leaf_vector":"1"}},{"base_weights":[4.1387282E-2,1.5009901E-1,-1.1024931E-1,7.306122E-1,8.708972E-2,6.5925926E-1,-1.7253731E-1,-4.1428573E-2,4.8604652E-2,1.9426934E-1,-2.5504586E-1,-1.2857142E-2,4.714286E-2,-3.2465115E-1,9.7520664E-2,-3.2459018E-1,3.0380622E-1,-4.8045978E-1,6E-1,-3.758454E-1,4.3333333E-2,5.8431375E-1,-2.5070423E-1,4.5882353E-1,-6.1777776E-1,-4.72E-1,3.7660378E-1,4.1428573E-2,-5.901235E-1,-1.2857142E-2,4.647059E-2,-9.018868E-1,-1.9225806E-1,7.9555553E-1,-4.1428573E-2,-4.557377E-1,4.4545453E-2,-1.2857142E-2,4.4545453E-2,8.181818E-3,-8.5142857E-1,2.1111112E-2,-4.647059E-2,7.722772E-2,5.5636364E-1,9.4736844E-2,-7.904762E-1,-4.8723407E-2,-1.2857142E-2,2.0597015E-1,-4.9213484E-1,-1.2857142E-2,4.8461538E-2,4.3333333E-2,-6.754717E-1,-1.2857142E-2,-4.7931034E-2,4.276923E-1,-5.3513515E-1,6.3096774E-1,-2.6363635E-2,4.3333333E-2,-2.6363635E-2,1.2857142E-2,-9.0877193E-1,4.1754386E-1,-4.4545453E-2,-6E-1,4.1428573E-2,8.181818E-3,-8.7906975E-1,3.1403508E-2,-4.3333333E-2,-4.7391307E-2,6E-3,1.9041097E-2,4.2048194E-2,-1.2857142E-2,-4.882353E-2,-1.2608695E-2,4.257143E-2,2.1111112E-2,-3.5866667E-2,-1.2857142E-2,-4.837838E-2],"categories":[],"categories_nodes":[],"categories_segments":[],"categories_sizes":[],"default_left":[0,0,0,0,0,0,0,0,0,0,0,0,0,0,0,0,0,0,0,0,0,0,0,0,0,0,0,0,0,0,0,0,0,0,0,0,0,0,0,0,0,0,0,0,0,0,0,0,0,0,0,0,0,0,0,0,0,0,0,0,0,0,0,0,0,0,0,0,0,0,0,0,0,0,0,0,0,0,0,0,0,0,0,0,0],"id":17,"left_children":[1,3,5,7,9,11,13,-1,-1,15,17,-1,-1,19,21,23,25,27,29,31,-1,33,35,37,39,41,43,-1,45,-1,-1,47,49,51,-1,53,-1,-1,-1,-1,55,-1,-1,57,59,61,63,-1,-1,65,67,-1,-1,-1,69,-1,-1,71,73,75,-1,-1,-1,-1,77,79,-1,81,-1,-1,83,-1,-1,-1,-1,-1,-1,-1,-1,-1,-1,-1,-1,-1,-1],"loss_changes":[7.141882E0,9.122292E0,8.659775E0,9.641642E0,8.397782E0,3.6983066E0,6.919369E0,0E0,0E0,9.964807E0,1.0636471E1,0E0,0E0,6.670059E0,1.036217E1,7.16308E0,8.240234E0,6.4652004E0,3.4337816E0,9.799355E0,0E0,7.937027E0,8.468941E0,2.8074715E0,4.2464466E0,5.359775E0,7.0457516E0,0E0,5.6641684E0,0E0,0E0,9.916496E-1,9.334302E0,4.3094444E0,0E0,9.1361885E0,0E0,0E0,0E0,0E0,8.699713E-1,0E0,0E0,1.0941573E1,6.846323E0,4.8238277E0,4.085764E0,0E0,0E0,7.9130325E0,6.5651045E0,0E0,0E0,0E0,4.670747E0,0E0,0E0,8.677533E0,5.1414666E0,3.7887402E0,0E0,0E0,0E0,0E0,1.0083523E0,8.448817E0,0E0,5.1584873E0,0E0,0E0,9.3647003E-1,0E0,0E0,0E0,0E0,0E0,0E0,0E0,0E0,0E0,0E0,0E0,0E0,0E0,0E0],"parents":[2147483647,0,0,1,1,2,2,3,3,4,4,5,5,6,6,9,9,10,10,13,13,14,14,15,15,16,16,17,17,18,18,19,19,21,21,22,22,23,23,24,24,25,25,26,26,28,28,31,31,32,32,33,33,35,35,40,40,43,43,44,44,45,45,46,46,49,49,50,50,54,54,57,57,58,58,59,59,64,64,65,65,67,67,70,70],"right_children":[2,4,6,8,10,12,14,-1,-1,16,18,-1,-1,20,22,24,26,28,30,32,-1,34,36,38,40,42,44,-1,46,-1,-1,48,50,52,-1,54,-1,-1,-1,-1,56,-1,-1,58,60,62,64,-1,-1,66,68,-1,-1,-1,70,-1,-1,72,74,76,-1,-1,-1,-1,78,80,-1,82,-1,-1,84,-1,-1,-1,-1,-1,-1,-1,-1,-1,-1,-1,-1,-1,-1],"split_conditions":[9.083521E-3,1.2126022E-1,1.583752E-1,2.6033124E-2,7.5177774E-2,5.909656E-2,9.879601E-2,-4.843101E-5,3.5932586E-3,2.5169924E-1,4.381138E-1,-3.2553622E-3,2.405397E-3,9.920285E-1,1.8769653E-1,5.8420803E-2,-4.5379284E-1,2.1713258E-1,5.349525E-2,1.6617188E-2,3.792119E-3,1.7743714E-1,7.1254563E-1,2.4023792E-1,6.329337E-2,1.0743801E-1,1.0070202E-2,4.0165335E-3,1.5682086E-1,-3.4612676E-3,7.734801E-3,1.9140592E-2,4.1696796E-1,1.6699351E-1,-2.8647098E-3,6.677489E-2,2.6321837E-3,-1.6829186E-5,1.9380291E-3,1.19051714E-4,7.75048E-2,1.3121053E-3,-3.8255402E-3,4.6874183E-1,3.7509403E-1,3.1722322E-1,3.7704554E-1,-1.7395997E-3,-5.6239794E-4,7.064788E-2,3.4145826E-1,-1.0682462E-3,4.982108E-3,3.5929827E-3,3.5827792E-1,-8.02077E-4,-2.5906228E-3,1.5594314E-1,-7.162804E-3,1.933647E-1,-1.8754594E-3,2.250532E-3,-5.985668E-4,2.2318587E-5,8.099172E-2,-7.193876E-2,-2.7888552E-3,-2.3259778E-1,1.1754612E-2,3.5202452E-3,2.7937105E-1,2.9697578E-4,-1.8080723E-3,-2.0564646E-3,6.1018767E-5,1.4904258E-3,2.5836255E-3,-4.479977E-3,-3.7186828E-3,-4.51945E-4,1.3511773E-3,5.5155763E-4,-1.6402729E-3,-3.3324491E-3,-3.900747E-3],"split_indices":[1,24,19,39,92,0,131,0,0,33,3,0,0,30,130,31,131,3,106,133,0,93,43,3,41,0,106,0,43,0,0,1,5,36,0,132,0,0,0,0,0,0,0,11,117,3,26,0,0,93,38,0,0,0,35,0,0,129,101,20,0,0,0,0,0,97,0,129,0,0,5,0,0,0,0,0,0,0,0,0,0,0,0,0,0],"split_type":[0,0,0,0,0,0,0,0,0,0,0,0,0,0,0,0,0,0,0,0,0,0,0,0,0,0,0,0,0,0,0,0,0,0,0,0,0,0,0,0,0,0,0,0,0,0,0,0,0,0,0,0,0,0,0,0,0,0,0,0,0,0,0,0,0,0,0,0,0,0,0,0,0,0,0,0,0,0,0,0,0,0,0,0,0],"sum_hessian":[4.32E2,2.52E2,1.8E2,2.4E1,2.28E2,1.3E1,1.67E2,3E0,2.1E1,1.74E2,5.4E1,3E0,1E1,1.07E2,6E1,3E1,1.44E2,4.3E1,1.1E1,1.03E2,4E0,2.5E1,3.5E1,8E0,2.2E1,1.2E1,1.32E2,3E0,4E1,3E0,8E0,2.6E1,7.7E1,2.2E1,3E0,3E1,5E0,3E0,5E0,5E0,1.7E1,4E0,8E0,5E1,8.2E1,9E0,3.1E1,2.3E1,3E0,3.3E1,4.4E1,3E0,1.9E1,4E0,2.6E1,3E0,1.4E1,3.2E1,1.8E1,7.7E1,5E0,4E0,5E0,3E0,2.8E1,2.8E1,5E0,4.1E1,3E0,5E0,2.1E1,2.8E1,4E0,1.1E1,7E0,3.6E1,4.1E1,3E0,2.5E1,1.1E1,1.7E1,4E0,3.7E1,3E0,1.8E1],"tree_param":{"num_deleted":"0","num_feature":"172","num_nodes":"85","size_leaf_vector":"1"}},{"base_weights":[-4.217536E-3,-3.4530707E-2,6.615385E-1,-5.8431375E-1,-0E0,4.777778E-2,-0E0,-7.860465E-1,2.1111112E-2,6.615385E-1,-3.3290323E-2,-4.1428573E-2,4.1428573E-2,-0E0,-4.8285715E-2,-8.181818E-3,4.7931034E-2,1.6923077E-1,-1.2816635E-1,2.6392695E-1,-5.448276E-1,4.8292682E-1,-1.795501E-1,9.813665E-2,7.084746E-1,8.181818E-3,-4.6842106E-2,-2.6363635E-2,8.3225805E-1,-7.411765E-1,-1.13439634E-1,-1.39823E-1,6.489796E-1,-1.2857142E-2,8.264151E-1,4.76E-2,1.2857142E-2,-4.8461538E-2,-0E0,7.263158E-1,-1.5154395E-1,1.468085E-2,-2.2238806E-2,-0E0,4.2972974E-2,4.8666667E-2,-0E0,4.1428573E-2,-4.1428573E-2,1.2857142E-2,4.5384616E-2,-3.390244E-2,-4.698163E-3],"categories":[],"categories_nodes":[],"categories_segments":[],"categories_sizes":[],"default_left":[0,0,0,0,0,0,0,0,0,0,0,0,0,0,0,0,0,0,0,0,0,0,0,0,0,0,0,0,0,0,0,0,0,0,0,0,0,0,0,0,0,0,0,0,0,0,0,0,0,0,0,0,0],"id":18,"left_children":[1,3,5,7,9,-1,11,13,-1,15,17,-1,-1,-1,-1,-1,-1,19,21,23,25,27,29,31,33,-1,-1,-1,35,37,39,41,43,-1,45,-1,-1,-1,47,49,51,-1,-1,-1,-1,-1,-1,-1,-1,-1,-1,-1,-1],"loss_changes":[9.040339E0,8.191767E0,3.792821E0,5.3801336E0,8.963291E0,0E0,4.805714E0,3.0363846E0,0E0,4.9382553E0,7.452317E0,0E0,0E0,0E0,0E0,0E0,0E0,8.394703E0,8.318386E0,7.954909E0,4.18103E0,7.484244E0,8.950632E0,1.0648098E1,3.5227995E0,0E0,0E0,0E0,8.2409954E-1,4.3102255E0,7.021184E0,7.54852E0,3.34663E0,0E0,3.2175102E0,0E0,0E0,0E0,4.805714E0,5.752344E-1,6.272568E0,0E0,0E0,0E0,0E0,0E0,0E0,0E0,0E0,0E0,0E0,0E0,0E0],"parents":[2147483647,0,0,1,1,2,2,3,3,4,4,6,6,7,7,9,9,10,10,17,17,18,18,19,19,20,20,21,21,22,22,23,23,24,24,28,28,29,29,30,30,31,31,32,32,34,34,38,38,39,39,40,40],"right_children":[2,4,6,8,10,-1,12,14,-1,16,18,-1,-1,-1,-1,-1,-1,20,22,24,26,28,30,32,34,-1,-1,-1,36,38,40,42,44,-1,46,-1,-1,-1,48,50,52,-1,-1,-1,-1,-1,-1,-1,-1,-1,-1,-1,-1],"split_conditions":[9.715108E-1,-6E-1,1.6271167E-2,5.865024E-1,1.4120378E-1,1.5789833E-3,3.7813345E-1,2.0963436E-1,4.264488E-3,1.155182E-1,2.035276E-1,-2.204884E-4,3.9475258E-3,-2.1103253E-3,-2.1915261E-3,-2.1511968E-4,3.2973588E-3,7.5177774E-2,6.7559467E-3,2.7322184E-2,-1.2037686E-2,-1.7364768E-2,1.2191325E-2,3.3529145E-1,2.2306857E-3,2.976358E-5,-2.50125E-3,-1.7319389E-3,4.288475E-3,5.8396943E-3,8.018823E-3,4.3832597E-1,1.3993191E-2,-1.475735E-3,2.2157596E-1,2.0572606E-3,4.9524104E-5,-2.1827861E-3,3.0742368E-1,9.690931E-2,2.3858404E-1,4.527893E-4,-2.7399938E-4,1.3742353E-3,2.484703E-3,1.0487018E-3,-2.9786798E-4,3.344233E-3,-5.1348736E-3,3.978517E-5,3.0451398E-3,-5.338388E-4,-6.199228E-5],"split_indices":[30,149,124,33,19,0,8,17,0,17,49,0,0,0,0,0,0,92,47,97,103,87,47,45,1,0,0,0,1,1,136,28,47,0,119,0,0,0,7,0,49,0,0,0,0,0,0,0,0,0,0,0,0],"split_type":[0,0,0,0,0,0,0,0,0,0,0,0,0,0,0,0,0,0,0,0,0,0,0,0,0,0,0,0,0,0,0,0,0,0,0,0,0,0,0,0,0,0,0,0,0,0,0,0,0,0,0,0,0],"sum_hessian":[4.5E2,4.31E2,1.9E1,2.5E1,4.06E2,1.3E1,6E0,2.1E1,4E0,1.9E1,3.87E2,3E0,3E0,4E0,1.7E1,5E0,1.4E1,1.23E2,2.64E2,1.09E2,1.4E1,2E1,2.44E2,8E1,2.9E1,5E0,9E0,5E0,1.5E1,2.5E1,2.19E2,5.6E1,2.4E1,3E0,2.6E1,1.2E1,3E0,1.9E1,6E0,9E0,2.1E2,2.3E1,3.3E1,6E0,1.8E1,2.2E1,4E0,3E0,3E0,3E0,6E0,2E1,1.9E2],"tree_param":{"num_deleted":"0","num_feature":"172","num_nodes":"53","size_leaf_vector":"1"}},{"base_weights":[8.934708E-3,-5.61354E-2,2.8969696E-1,1.062645E-1,-3.075269E-1,6.094118E-1,-4.691358E-2,-2.2608696E-2,6.183908E-1,-9.132948E-2,-6.523365E-1,7.6438355E-1,-2.923077E-1,-6.32E-1,2.0701754E-1,2.0621762E-1,-3.124183E-1,-4.1428573E-2,7.382716E-1,-1.97351E-1,6E-1,2.6363635E-2,-7.814433E-1,8.626866E-1,-1.2857142E-2,1.2857142E-2,-4.1428573E-2,1.2857142E-2,-4.6842106E-2,5.7419354E-1,-2.1481481E-1,3.0650887E-1,-4.72E-1,-8.1960785E-1,-5.631068E-2,4.8909094E-2,2.1481481E-1,-2.6433566E-1,4.3333333E-2,4.647059E-2,-1.2857142E-2,-8.5494506E-1,1.2857142E-2,-0E0,4.898305E-2,-2.1111112E-2,4.7391307E-2,-7.263158E-1,4.3333333E-2,-4.3333333E-2,3.7142858E-1,2.1111112E-2,-4.647059E-2,-8.181818E-3,-4.8536588E-2,1.943662E-1,-6E-1,-2.2352941E-1,4.4545453E-2,2.8571429E-2,-4.91358E-1,-3.7142858E-1,-4.915493E-2,-1.2857142E-2,-4.5384616E-2,8.122449E-1,1.7522123E-1,6E-1,-4.0689656E-1,-8.074074E-1,1.2857142E-2,2.1111112E-2,-4.3333333E-2,-7.263158E-1,3.511111E-1,1.8095239E-1,-7.180328E-1,4.1428573E-2,-4.6E-2,4.8604652E-2,-1.2857142E-2,3.1702127E-2,-7.3134326E-3,4.76E-2,4.736842E-3,2.1111112E-2,-3.761905E-2,-4.714286E-2,-1.2857142E-2,-1.2857142E-2,-4.5384616E-2,-2.6363635E-2,3.1142859E-2,4.4545453E-2,-2.6363635E-2,-4.8604652E-2,-4.736842E-3],"categories":[],"categories_nodes":[],"categories_segments":[],"categories_sizes":[],"default_left":[0,0,0,0,0,0,0,0,0,0,0,0,0,0,0,0,0,0,0,0,0,0,0,0,0,0,0,0,0,0,0,0,0,0,0,0,0,0,0,0,0,0,0,0,0,0,0,0,0,0,0,0,0,0,0,0,0,0,0,0,0,0,0,0,0,0,0,0,0,0,0,0,0,0,0,0,0,0,0,0,0,0,0,0,0,0,0,0,0,0,0,0,0,0,0,0,0],"id":19,"left_children":[1,3,5,7,9,11,13,15,17,19,21,23,25,27,29,31,33,-1,35,37,39,-1,41,43,-1,-1,-1,-1,-1,45,47,49,51,53,55,-1,57,59,-1,-1,-1,61,-1,-1,-1,-1,-1,63,-1,-1,65,-1,-1,-1,-1,67,69,71,-1,73,75,77,-1,-1,-1,79,81,83,85,87,-1,-1,-1,89,91,93,95,-1,-1,-1,-1,-1,-1,-1,-1,-1,-1,-1,-1,-1,-1,-1,-1,-1,-1,-1,-1],"loss_changes":[8.006007E0,1.4509266E1,8.949142E0,1.4289431E1,1.0295141E1,6.0979204E0,6.1250677E0,1.1482354E1,7.8424664E0,6.359027E0,8.37925E0,3.836769E0,2.078901E0,3.5765228E0,4.511882E0,6.6196494E0,9.826308E0,0E0,4.8617325E0,5.4354143E0,3.4337816E0,0E0,3.8720913E0,3.3805618E0,0E0,0E0,0E0,0E0,0E0,6.0232043E0,7.7686157E0,6.547135E0,5.359775E0,2.3350296E0,7.117826E0,0E0,4.1671977E0,4.8077946E0,0E0,0E0,0E0,2.5013504E0,0E0,0E0,0E0,0E0,0E0,5.752344E-1,0E0,0E0,6.7926483E0,0E0,0E0,0E0,0E0,8.799563E0,3.0921683E0,3.7575164E0,0E0,7.759642E0,6.290703E0,7.302286E0,0E0,0E0,0E0,4.3844986E0,8.42926E0,3.6740632E0,4.3453417E0,7.6497364E-1,0E0,0E0,0E0,5.752344E-1,5.5444555E0,5.550736E0,4.6770887E0,0E0,0E0,0E0,0E0,0E0,0E0,0E0,0E0,0E0,0E0,0E0,0E0,0E0,0E0,0E0,0E0,0E0,0E0,0E0,0E0],"parents":[2147483647,0,0,1,1,2,2,3,3,4,4,5,5,6,6,7,7,8,8,9,9,10,10,11,11,12,12,13,13,14,14,15,15,16,16,18,18,19,19,20,20,22,22,23,23,29,29,30,30,31,31,32,32,33,33,34,34,36,36,37,37,41,41,47,47,50,50,55,55,56,56,57,57,59,59,60,60,61,61,65,65,66,66,67,67,68,68,69,69,73,73,74,74,75,75,76,76],"right_children":[2,4,6,8,10,12,14,16,18,20,22,24,26,28,30,32,34,-1,36,38,40,-1,42,44,-1,-1,-1,-1,-1,46,48,50,52,54,56,-1,58,60,-1,-1,-1,62,-1,-1,-1,-1,-1,64,-1,-1,66,-1,-1,-1,-1,68,70,72,-1,74,76,78,-1,-1,-1,80,82,84,86,88,-1,-1,-1,90,92,94,96,-1,-1,-1,-1,-1,-1,-1,-1,-1,-1,-1,-1,-1,-1,-1,-1,-1,-1,-1,-1],"split_conditions":[5.4769987E-1,2.0940012E-1,1.4066813E-2,9.75163E-2,3.8894388E-1,4.621824E-1,1.9281277E-1,4.2968753E-1,-5.132632E-1,2.9861483E-1,4.1807622E-1,2.3317873E-1,2.1652437E-3,7.0249236E-1,1.7743714E-1,-2.0991484E-2,-5.328348E-2,-2.1516846E-2,3.4226516E-1,3.8580728E-1,3.8497847E-1,2.8696936E-3,5.2538407E-1,3.957135E-1,-1.640171E-5,4.587837E-3,-9.063615E-3,2.1937895E-3,-3.5389015E-3,4.572628E-1,9.630521E-1,-5.556236E-1,1.01239696E-1,1.4184389E-1,4.5647877E-1,2.4432677E-3,3.8027528E-1,-2.5459975E-3,1.833798E-3,6.1437464E-3,-1.1903722E-3,-8.187601E-3,2.1887744E-4,-2.1517493E-3,3.1770214E-3,-3.6806852E-4,4.208301E-3,1.3494849E-1,8.886762E-3,-5.1478213E-3,1.7561223E-1,2.108885E-4,-1.254328E-3,-7.5311185E-4,-1.5689681E-3,1.9756667E-1,4.555969E-1,2.888484E-1,7.350813E-3,-2.7459118E-1,3.5680314E-3,4.0996274E-1,-2.1451022E-3,-3.8109554E-4,-5.810956E-3,4.8696852E-1,1.0354516E-1,7.822918E-2,1.17255226E-1,9.883391E-2,9.268517E-4,3.5007868E-3,-8.9823996E-4,9.634326E-2,1.4850846E-1,3.9902514E-1,1.4602035E-1,1.8197E-4,-2.1437453E-3,2.2731633E-3,-7.9617195E-4,1.8071411E-4,-2.1893867E-4,1.3439091E-3,7.584304E-4,3.8545235E-4,-1.1609242E-3,-1.7772146E-3,-1.9123188E-3,-6.793328E-5,-3.0340038E-3,-5.302239E-3,1.8184882E-3,1.3245739E-3,-1.3058813E-3,-3.5294425E-3,-5.733142E-4],"split_indices":[11,19,1,2,85,84,119,28,121,131,25,89,1,29,93,121,125,0,3,85,43,0,25,3,0,0,0,0,0,85,35,131,84,30,40,0,3,105,0,0,0,100,0,0,0,0,0,0,0,0,38,0,0,0,0,20,121,43,0,92,51,6,0,0,0,5,36,114,43,0,0,0,0,0,84,49,90,0,0,0,0,0,0,0,0,0,0,0,0,0,0,0,0,0,0,0,0],"split_type":[0,0,0,0,0,0,0,0,0,0,0,0,0,0,0,0,0,0,0,0,0,0,0,0,0,0,0,0,0,0,0,0,0,0,0,0,0,0,0,0,0,0,0,0,0,0,0,0,0,0,0,0,0,0,0,0,0,0,0,0,0,0,0,0,0,0,0,0,0,0,0,0,0,0,0,0,0,0,0,0,0,0,0,0,0,0,0,0,0,0,0,0,0,0,0,0,0],"sum_hessian":[4.36E2,3.54E2,8.2E1,2.15E2,1.39E2,4.2E1,4E1,1.72E2,4.3E1,8.6E1,5.3E1,3.6E1,6E0,1.2E1,2.8E1,9.6E1,7.6E1,3E0,4E1,7.5E1,1.1E1,5E0,4.8E1,3.3E1,3E0,3E0,3E0,3E0,9E0,1.5E1,1.3E1,8.4E1,1.2E1,2.5E1,5.1E1,2.7E1,1.3E1,7.1E1,4E0,8E0,3E0,4.5E1,3E0,4E0,2.9E1,4E0,1.1E1,9E0,4E0,4E0,8E1,4E0,8E0,5E0,2E1,3.5E1,1.6E1,8E0,5E0,3.1E1,4E1,1E1,3.5E1,3E0,6E0,2.4E1,5.6E1,2.1E1,1.4E1,1.3E1,3E0,4E0,4E0,9E0,2.2E1,1E1,3E1,3E0,7E0,2.1E1,3E0,2.3E1,3.3E1,1.2E1,9E0,4E0,1E1,1E1,3E0,3E0,6E0,5E0,1.7E1,5E0,5E0,2.1E1,9E0],"tree_param":{"num_deleted":"0","num_feature":"172","num_nodes":"97","size_leaf_vector":"1"}},{"base_weights":[3.3445567E-2,3.5460123E-1,-3.813443E-2,9.174603E-1,-0E0,8.206897E-1,-7.389443E-2,4.8947368E-2,1.2857142E-2,-3.4603176E-1,5.589744E-1,1.2857142E-2,4.7391307E-2,2.8659794E-1,-1.3190083E-1,3.0526316E-1,-6.1777776E-1,8.424242E-1,-4.1428573E-2,-2.3636363E-1,5.507692E-1,-8.5142857E-1,-8.721541E-2,4.4545453E-2,-2.1111112E-2,4.1428573E-2,-8.666667E-1,1.2857142E-2,4.777778E-2,1.8095239E-1,-4.5384616E-2,6.982456E-1,-2.1111112E-2,-1.2857142E-2,-4.7931034E-2,3.2658228E-1,-1.5375254E-1,-4.8181817E-2,-1.2857142E-2,-4.1428573E-2,6.533333E-1,-0E0,8.844444E-1,-4.4545453E-2,5.1884055E-1,3.787234E-1,-2.098434E-1,4.3333333E-2,1.2857142E-2,4.1428573E-2,-4.1428573E-2,4.8461538E-2,1.2857142E-2,-4.1428573E-2,6.634921E-1,8.5142857E-1,-4.5384616E-2,-3.5563636E-1,2.1965317E-2,-2.1111112E-2,4.1636363E-2,4.7931034E-2,1.2857142E-2,4.3333333E-2,-1.9812735E-2,-2.0877194E-2,1.1880342E-2],"categories":[],"categories_nodes":[],"categories_segments":[],"categories_sizes":[],"default_left":[0,0,0,0,0,0,0,0,0,0,0,0,0,0,0,0,0,0,0,0,0,0,0,0,0,0,0,0,0,0,0,0,0,0,0,0,0,0,0,0,0,0,0,0,0,0,0,0,0,0,0,0,0,0,0,0,0,0,0,0,0,0,0,0,0,0,0],"id":20,"left_children":[1,3,5,7,9,11,13,-1,-1,15,17,-1,-1,19,21,23,25,27,-1,29,31,33,35,-1,-1,-1,37,-1,-1,39,-1,41,-1,-1,-1,43,45,-1,-1,-1,47,49,51,-1,53,55,57,-1,-1,-1,-1,-1,-1,-1,59,61,-1,63,65,-1,-1,-1,-1,-1,-1,-1,-1],"loss_changes":[1.0279705E1,1.6266628E1,1.1150004E1,1.0294533E0,9.864566E0,7.9652596E-1,7.3326883E0,0E0,0E0,5.700629E0,8.019734E0,0E0,0E0,6.796876E0,9.595105E0,4.282414E0,8.462411E0,